{"learner":{"attributes":{"best_iteration":"4","best_score":"0.8241391933682222"},"feature_names":[],"feature_types":[],"gradient_booster":{"model":{"cats":{"enc":[],"feature_segments":[],"sorted_idx":[]},"gbtree_model_param":{"num_parallel_tree":"1","num_trees":"55"},"iteration_indptr":[0,1,2,3,4,5,6,7,8,9,10,11,12,13,14,15,16,17,18,19,20,21,22,23,24,25,26,27,28,29,30,31,32,33,34,35,36,37,38,39,40,41,42,43,44,45,46,47,48,49,50,51,52,53,54,55],"tree_info":[0,0,0,0,0,0,0,0,0,0,0,0,0,0,0,0,0,0,0,0,0,0,0,0,0,0,0,0,0,0,0,0,0,0,0,0,0,0,0,0,0,0,0,0,0,0,0,0,0,0,0,0,0,0,0],"trees":[{"base_weights":[3.0555504E-3,-9.483361E-1,1.0586047E0,-1.19762E0,-4.2749536E-1,6.1981845E-1,1.7142152E0,-1.3858421E0,-1.046391E0,-2.8658256E-1,-1.1044363E0,3.02146E-1,9.093287E-1,1.7272236E0,-7.756152E-2,-1.5654695E0,-1.0750651E0,-5.66056E-1,-1.4161341E0,-4.466081E-1,-1.1006551E-2,-1.3316777E0,-4.2859888E-1,-1.8369384E-2,5.497402E-1,2.3593527E-1,9.524244E-1,1.4973705E0,1.8319311E0,-1.8660927E-1,-1.4626404E0,-1.1182778E0,4.3017465E-1,-7.156961E-2,-7.774985E-1,-5.0964135E-1,-1.4466357E0,-4.6868247E-1,7.978241E-2,-1.2247994E0,7.890671E-2,-7.634182E-1,-1.4731586E0,-1.0059425E0,-1.4522488E-2,1.4459935E-1,-5.871875E-1,3.1280097E-1,8.854531E-1,5.6462795E-1,-8.5730565E-1,1.1219358E0,8.0308324E-1,3.48247E-1,1.5332961E0,1.8387533E0,6.94172E-2,-1.1860833E-1,-1.6210033E-1,2.0794345E-2,-1.1425942E-1,-1.9950943E-2,8.247877E-2,-5.925068E-2,3.999598E-3,-1.6115083E-1,-7.0257254E-2,6.895867E-2,-8.223242E-2,-1.4560328E-1,-4.3330275E-2,1.1204978E-2,-5.1766075E-2,-1.5579003E-2,-1.5677528E-1,6.2623106E-2,-9.86711E-4,-2.9929904E-2,-1.16761856E-1,-1.624569E-1,-8.394623E-2,-1.5579003E-2,-1.3018952E-1,8.866706E-2,-4.4760436E-2,2.0360237E-3,8.616163E-2,-8.578119E-2,1.0310495E-1,6.891919E-3,6.866306E-2,1.0226645E-1,4.864741E-2,-2.8354123E-2,8.945476E-2,-1.2469905E-1,-1.5579003E-2,1.2235582E-1,3.8772438E-2,4.829186E-2,1.0082575E-1,8.866706E-2,-6.4405754E-2,1.1347075E-1,1.6090475E-1,1.3181983E-1,1.8599458E-1],"categories":[],"categories_nodes":[],"categories_segments":[],"categories_sizes":[],"default_left":[0,0,0,0,0,0,0,0,0,0,0,0,0,0,0,0,0,0,0,0,0,0,0,0,0,0,0,0,0,0,0,0,0,0,0,0,0,0,0,0,0,0,0,0,0,0,0,0,0,0,0,0,0,0,0,0,0,0,0,0,0,0,0,0,0,0,0,0,0,0,0,0,0,0,0,0,0,0,0,0,0,0,0,0,0,0,0,0,0,0,0,0,0,0,0,0,0,0,0,0,0,0,0,0,0,0,0],"id":0,"left_children":[1,3,5,7,9,11,13,15,17,19,21,23,25,27,-1,29,31,33,35,37,39,41,43,45,47,49,51,53,55,-1,57,59,61,63,65,67,69,71,-1,73,75,77,79,81,83,85,87,89,91,93,95,97,99,101,103,105,-1,-1,-1,-1,-1,-1,-1,-1,-1,-1,-1,-1,-1,-1,-1,-1,-1,-1,-1,-1,-1,-1,-1,-1,-1,-1,-1,-1,-1,-1,-1,-1,-1,-1,-1,-1,-1,-1,-1,-1,-1,-1,-1,-1,-1,-1,-1,-1,-1,-1,-1],"loss_changes":[1.84226E3,1.24760925E2,2.4910791E2,1.7108093E1,2.962331E1,4.778212E1,1.2614258E1,1.4359741E1,6.41286E1,1.1511183E1,7.6806793E0,1.9900736E1,7.6945496E0,5.598877E0,0E0,2.8325806E0,7.535553E0,1.6744633E1,4.9561768E0,4.911461E0,1.0678447E1,2.06987E0,3.5699522E0,1.0300786E1,1.0973751E1,6.8598237E0,5.583267E0,4.170349E0,5.3723145E-1,0E0,4.1515503E0,3.6464996E0,1.096072E0,2.8848655E0,5.894882E0,3.659492E0,1.2608337E0,4.6923256E0,0E0,2.2295637E0,4.4380007E0,1.5257964E0,1.5854416E0,1.3691549E0,4.2007756E0,7.684816E0,1.1718956E1,7.653369E0,2.6763725E0,4.2396297E0,1.0354948E0,8.288879E0,8.689384E0,3.1080565E0,1.501648E0,1.03759766E-1,0E0,0E0,0E0,0E0,0E0,0E0,0E0,0E0,0E0,0E0,0E0,0E0,0E0,0E0,0E0,0E0,0E0,0E0,0E0,0E0,0E0,0E0,0E0,0E0,0E0,0E0,0E0,0E0,0E0,0E0,0E0,0E0,0E0,0E0,0E0,0E0,0E0,0E0,0E0,0E0,0E0,0E0,0E0,0E0,0E0,0E0,0E0,0E0,0E0,0E0,0E0],"parents":[2147483647,0,0,1,1,2,2,3,3,4,4,5,5,6,6,7,7,8,8,9,9,10,10,11,11,12,12,13,13,15,15,16,16,17,17,18,18,19,19,20,20,21,21,22,22,23,23,24,24,25,25,26,26,27,27,28,28,30,30,31,31,32,32,33,33,34,34,35,35,36,36,37,37,39,39,40,40,41,41,42,42,43,43,44,44,45,45,46,46,47,47,48,48,49,49,50,50,51,51,52,52,53,53,54,54,55,55],"right_children":[2,4,6,8,10,12,14,16,18,20,22,24,26,28,-1,30,32,34,36,38,40,42,44,46,48,50,52,54,56,-1,58,60,62,64,66,68,70,72,-1,74,76,78,80,82,84,86,88,90,92,94,96,98,100,102,104,106,-1,-1,-1,-1,-1,-1,-1,-1,-1,-1,-1,-1,-1,-1,-1,-1,-1,-1,-1,-1,-1,-1,-1,-1,-1,-1,-1,-1,-1,-1,-1,-1,-1,-1,-1,-1,-1,-1,-1,-1,-1,-1,-1,-1,-1,-1,-1,-1,-1,-1,-1],"split_conditions":[2.1125E1,1.075E1,4.8833332E1,7E0,9E0,3.2625E1,8E0,6E0,8E0,1.72E1,3.2E1,5.555556E-1,6.25E-1,5.7E1,-7.756152E-2,6E0,1.9125E1,7.0710677E-1,-4.0833335E0,2.2344303E1,2.5E-1,1E1,1.1E1,2.9398434E1,8.3333336E-2,4.8375763E1,1.4E1,3E0,1.9E1,-1.8660927E-1,3E0,3E0,2.023E3,7E0,3.75E0,9E0,3.7E1,5.87367E0,7.978241E-2,7.3333335E0,-1E1,2.021E3,3.3E1,1.4333333E1,1.7E1,2.5333334E1,5E-1,3.3333334E-1,2.2513489E1,-5.111111E0,1E0,1.5666667E1,2.4E1,1E0,-1.7285715E1,1.4589624E1,6.94172E-2,-1.1860833E-1,-1.6210033E-1,2.0794345E-2,-1.1425942E-1,-1.9950943E-2,8.247877E-2,-5.925068E-2,3.999598E-3,-1.6115083E-1,-7.0257254E-2,6.895867E-2,-8.223242E-2,-1.4560328E-1,-4.3330275E-2,1.1204978E-2,-5.1766075E-2,-1.5579003E-2,-1.5677528E-1,6.2623106E-2,-9.86711E-4,-2.9929904E-2,-1.16761856E-1,-1.624569E-1,-8.394623E-2,-1.5579003E-2,-1.3018952E-1,8.866706E-2,-4.4760436E-2,2.0360237E-3,8.616163E-2,-8.578119E-2,1.0310495E-1,6.891919E-3,6.866306E-2,1.0226645E-1,4.864741E-2,-2.8354123E-2,8.945476E-2,-1.2469905E-1,-1.5579003E-2,1.2235582E-1,3.8772438E-2,4.829186E-2,1.0082575E-1,8.866706E-2,-6.4405754E-2,1.1347075E-1,1.6090475E-1,1.3181983E-1,1.8599458E-1],"split_indices":[7,11,11,2,2,7,2,7,2,11,0,12,10,7,0,2,7,13,14,13,10,1,1,13,14,13,0,1,15,0,15,0,4,1,7,1,1,13,0,7,14,4,1,11,1,11,8,8,13,14,3,14,0,3,14,13,0,0,0,0,0,0,0,0,0,0,0,0,0,0,0,0,0,0,0,0,0,0,0,0,0,0,0,0,0,0,0,0,0,0,0,0,0,0,0,0,0,0,0,0,0,0,0,0,0,0,0],"split_type":[0,0,0,0,0,0,0,0,0,0,0,0,0,0,0,0,0,0,0,0,0,0,0,0,0,0,0,0,0,0,0,0,0,0,0,0,0,0,0,0,0,0,0,0,0,0,0,0,0,0,0,0,0,0,0,0,0,0,0,0,0,0,0,0,0,0,0,0,0,0,0,0,0,0,0,0,0,0,0,0,0,0,0,0,0,0,0,0,0,0,0,0,0,0,0,0,0,0,0,0,0,0,0,0,0,0,0],"sum_hessian":[1.8324808E3,9.6384546E2,8.686354E2,6.5097675E2,3.1286868E2,5.2153107E2,3.471043E2,2.863798E2,3.6459695E2,2.601408E2,5.2727867E1,2.4964522E2,2.718859E2,3.4560495E2,1.4993707E0,1.789249E2,1.07454895E2,1.5968297E2,2.0491399E2,1.6418109E2,9.5959724E1,3.873374E1,1.3994126E1,1.0920416E2,1.4044106E2,1.6742973E1,2.5514291E2,1.1295259E2,2.3265234E2,4.1232693E1,1.376922E2,1.04706055E2,2.7488463E0,4.8229755E1,1.1145322E2,7.2469583E0,1.9766704E2,1.6193204E2,2.249056E0,5.7475877E0,9.0212135E1,8.996224E0,2.9737518E1,5.2477975E0,8.746329E0,8.546413E1,2.3740036E1,8.3464966E1,5.6976086E1,1.3244441E1,3.4985316E0,1.1645112E2,1.3869179E2,3.7484267E0,1.0920416E2,2.3065318E2,1.9991609E0,5.3227657E1,8.446455E1,1.7492658E0,1.0295679E2,1.2494756E0,1.4993707E0,7.7467484E0,4.048301E1,7.4968534E0,1.0395637E2,1.2494756E0,5.997483E0,1.9541798E2,2.249056E0,1.2494756E1,1.4943727E2,1.7492658E0,3.9983218E0,1.174507E1,7.8467064E1,4.9979024E0,3.9983218E0,2.2740456E1,6.997063E0,1.7492658E0,3.4985316E0,2.4989512E0,6.247378E0,7.3719055E1,1.174507E1,2.0741295E1,2.9987414E0,5.1228497E1,3.223647E1,4.1232693E1,1.5743392E1,3.7484267E0,9.496015E0,1.7492658E0,1.7492658E0,1.0170731E2,1.4743812E1,5.5476715E1,8.321507E1,2.4989512E0,1.2494756E0,1.999161E1,8.9212555E1,1.1495175E1,2.19158E2],"tree_param":{"num_deleted":"0","num_feature":"17","num_nodes":"107","size_leaf_vector":"1"}},{"base_weights":[1.5345165E-2,-8.293825E-1,9.3744856E-1,-1.0461586E0,-3.756032E-1,4.5791855E-1,1.4785416E0,-1.6606636E0,-9.9526393E-1,-2.565926E-1,-9.9490684E-1,2.5018674E-1,8.455534E-1,1.0403323E0,1.604665E0,-1.7172371E-1,-2.2510787E-2,-8.6253697E-1,-1.259622E0,-3.4609297E-1,3.6588812E-1,-1.2008415E0,-3.8929382E-1,-4.0096402E-2,4.5910382E-1,8.785859E-1,-6.004632E-1,-4.8651304E-2,1.0823227E0,1.6125962E0,-2.3334615E-2,-1.1374024E0,-4.4288185E-1,-1.2767525E0,-1.5458219E-2,-5.019906E-1,-2.2524808E-1,-4.9874306E-1,4.508646E-1,-1.2506288E0,-2.1417793E-2,-7.9348797E-1,9.845495E-4,-9.906985E-1,4.5245957E-2,3.307419E-1,6.94676E-1,8.0006105E-1,1.3489873E0,-1.1967901E-1,1.601677E-2,5.842685E-1,1.1953665E0,1.0550356E0,1.6351061E0,-1.1878897E-1,-4.31956E-2,1.14043355E-2,-6.1823666E-2,-1.2855445E-1,-2.7749304E-2,7.417088E-2,-6.919705E-2,-6.930691E-2,-1.8294254E-2,-5.2709628E-2,-1.0388171E-2,-1.5357799E-2,-6.2144108E-2,5.7500865E-2,-2.730211E-2,-1.5711793E-1,-1.06618084E-1,-7.337443E-3,-1.24154985E-1,4.4983815E-2,-9.350475E-2,-1.3362244E-1,-3.257681E-2,7.4957325E-3,-1.2483585E-1,1.2408631E-2,6.0825277E-2,1.5774484E-1,5.5424955E-2,2.7475366E-2,9.2028685E-2,1.5950164E-1,8.079919E-2,7.917871E-2,-2.7172236E-2,4.4896558E-2,1.2565163E-1,-2.605491E-2,1.1911833E-1,1.4773679E-1,1.7326592E-1],"categories":[],"categories_nodes":[],"categories_segments":[],"categories_sizes":[],"default_left":[0,0,0,0,0,0,0,0,0,0,0,0,0,0,0,0,0,0,0,0,0,0,0,0,0,0,0,0,0,0,0,0,0,0,0,0,0,0,0,0,0,0,0,0,0,0,0,0,0,0,0,0,0,0,0,0,0,0,0,0,0,0,0,0,0,0,0,0,0,0,0,0,0,0,0,0,0,0,0,0,0,0,0,0,0,0,0,0,0,0,0,0,0,0,0,0,0],"id":1,"left_children":[1,3,5,7,9,11,13,15,17,19,21,23,25,27,29,-1,-1,31,33,35,37,39,41,43,45,47,49,-1,51,53,-1,55,57,59,61,63,65,67,69,71,-1,73,75,77,79,81,83,85,87,-1,-1,89,91,93,95,-1,-1,-1,-1,-1,-1,-1,-1,-1,-1,-1,-1,-1,-1,-1,-1,-1,-1,-1,-1,-1,-1,-1,-1,-1,-1,-1,-1,-1,-1,-1,-1,-1,-1,-1,-1,-1,-1,-1,-1,-1,-1],"loss_changes":[1.4402123E3,9.453088E1,2.286925E2,1.875299E1,2.2852146E1,3.764324E1,2.1260742E1,3.5449677E0,2.014331E1,1.4852985E1,5.7919426E0,1.866672E1,8.342285E0,6.6536407E0,5.0457153E0,0E0,0E0,4.632614E1,4.244385E0,4.2504215E0,2.701933E0,1.5484123E0,2.2432458E0,1.0559578E1,5.1796036E0,4.844055E0,2.1184824E0,0E0,4.5556183E0,2.279541E0,0E0,8.201172E0,1.5921772E1,1.3770447E0,2.4236317E0,5.9893494E0,4.7915783E0,5.2437663E-2,2.9627995E0,3.9367676E-1,0E0,2.1624808E0,3.8787997E0,2.0278654E0,4.7014446E0,6.6747007E0,6.834667E0,8.581085E0,1.570507E0,0E0,0E0,3.6290421E0,2.863617E0,3.03298E0,2.1314697E0,0E0,0E0,0E0,0E0,0E0,0E0,0E0,0E0,0E0,0E0,0E0,0E0,0E0,0E0,0E0,0E0,0E0,0E0,0E0,0E0,0E0,0E0,0E0,0E0,0E0,0E0,0E0,0E0,0E0,0E0,0E0,0E0,0E0,0E0,0E0,0E0,0E0,0E0,0E0,0E0,0E0,0E0],"parents":[2147483647,0,0,1,1,2,2,3,3,4,4,5,5,6,6,7,7,8,8,9,9,10,10,11,11,12,12,13,13,14,14,17,17,18,18,19,19,20,20,21,21,22,22,23,23,24,24,25,25,26,26,28,28,29,29,31,31,32,32,33,33,34,34,35,35,36,36,37,37,38,38,39,39,41,41,42,42,43,43,44,44,45,45,46,46,47,47,48,48,51,51,52,52,53,53,54,54],"right_children":[2,4,6,8,10,12,14,16,18,20,22,24,26,28,30,-1,-1,32,34,36,38,40,42,44,46,48,50,-1,52,54,-1,56,58,60,62,64,66,68,70,72,-1,74,76,78,80,82,84,86,88,-1,-1,90,92,94,96,-1,-1,-1,-1,-1,-1,-1,-1,-1,-1,-1,-1,-1,-1,-1,-1,-1,-1,-1,-1,-1,-1,-1,-1,-1,-1,-1,-1,-1,-1,-1,-1,-1,-1,-1,-1,-1,-1,-1,-1,-1,-1],"split_conditions":[2.1125E1,1.075E1,4.3E1,6E0,9E0,3.6E1,4.9125E1,7.8333335E0,8E0,2.4666666E1,3.2E1,5.294118E-1,3.5E1,2.64E1,2E1,-1.7172371E-1,-2.2510787E-2,7E0,9E0,7E0,1.425E1,3.75E-1,1.3333333E1,3.75E-1,3.2625E1,6.04E1,3.72E1,-4.8651304E-2,8.125E-1,1.25E-1,-2.3334615E-2,1.2875E1,3.3333334E-1,3.7E1,1.0666667E1,1.6666667E-1,1.1E1,1.74E1,7.647059E-1,3E0,-2.1417793E-2,1.0333333E1,5.833333E-1,5E0,8E0,3.3333334E-1,6E0,2.3833334E1,2.2E1,-1.1967901E-1,1.601677E-2,4E-1,2.8E1,5E0,6.2E1,-1.1878897E-1,-4.31956E-2,1.14043355E-2,-6.1823666E-2,-1.2855445E-1,-2.7749304E-2,7.417088E-2,-6.919705E-2,-6.930691E-2,-1.8294254E-2,-5.2709628E-2,-1.0388171E-2,-1.5357799E-2,-6.2144108E-2,5.7500865E-2,-2.730211E-2,-1.5711793E-1,-1.06618084E-1,-7.337443E-3,-1.24154985E-1,4.4983815E-2,-9.350475E-2,-1.3362244E-1,-3.257681E-2,7.4957325E-3,-1.2483585E-1,1.2408631E-2,6.0825277E-2,1.5774484E-1,5.5424955E-2,2.7475366E-2,9.2028685E-2,1.5950164E-1,8.079919E-2,7.917871E-2,-2.7172236E-2,4.4896558E-2,1.2565163E-1,-2.605491E-2,1.1911833E-1,1.4773679E-1,1.7326592E-1],"split_indices":[7,11,11,2,2,5,7,11,2,5,0,12,0,6,15,0,0,2,15,2,7,9,5,10,7,6,6,0,12,9,0,7,5,1,5,9,1,6,12,15,0,5,12,15,2,8,1,11,1,0,0,9,5,1,11,0,0,0,0,0,0,0,0,0,0,0,0,0,0,0,0,0,0,0,0,0,0,0,0,0,0,0,0,0,0,0,0,0,0,0,0,0,0,0,0,0,0],"split_type":[0,0,0,0,0,0,0,0,0,0,0,0,0,0,0,0,0,0,0,0,0,0,0,0,0,0,0,0,0,0,0,0,0,0,0,0,0,0,0,0,0,0,0,0,0,0,0,0,0,0,0,0,0,0,0,0,0,0,0,0,0,0,0,0,0,0,0,0,0,0,0,0,0,0,0,0,0,0,0,0,0,0,0,0,0,0,0,0,0,0,0,0,0,0,0,0,0],"sum_hessian":[1.8469733E3,9.639819E2,8.829914E2,6.514639E2,3.1251794E2,4.6910513E2,4.138863E2,4.7409443E1,6.0405444E2,2.633288E2,4.9189148E1,3.0649905E2,1.6260606E2,9.45669E1,3.193194E2,4.5423153E1,1.9862905E0,4.0498517E2,1.9906932E2,2.3061494E2,3.2713837E1,3.5973682E1,1.3215466E1,1.2860915E2,1.7788992E2,1.5935814E2,3.2479281E0,2.24777E0,9.231913E1,3.1806955E2,1.2498416E0,2.4367361E2,1.6131155E2,1.9633978E2,2.7295368E0,9.932514E1,1.3128981E2,2.491703E0,3.0222134E1,3.399096E1,1.982725E0,5.9844747E0,7.2309904E0,9.721034E0,1.1888811E2,1.1670309E2,6.1186832E1,1.3887614E2,2.0482E1,1.4991735E0,1.7487546E0,1.8218706E1,7.4100426E1,1.4200477E1,3.0386905E2,2.2676096E2,1.6912651E1,3.871205E1,1.22599495E2,1.9434332E2,1.9964507E0,1.2425154E0,1.4870214E0,6.1387657E1,3.7937485E1,3.669164E1,9.459817E1,1.2439601E0,1.2477429E0,2.5973438E1,4.248695E0,9.669005E0,2.4321953E1,2.7417555E0,3.2427194E0,5.2384343E0,1.9925562E0,5.732576E0,3.9884577E0,1.1713971E2,1.7483972E0,6.772045E1,4.8982635E1,6.9930005E0,5.4193832E1,2.6476524E1,1.1239962E2,1.2739942E1,7.7420573E0,1.4724128E1,3.494578E0,6.2427554E0,6.785767E1,1.2460704E0,1.2954406E1,1.2228499E2,1.8158408E2],"tree_param":{"num_deleted":"0","num_feature":"17","num_nodes":"97","size_leaf_vector":"1"}},{"base_weights":[5.6979596E-3,-7.8482175E-1,8.4421265E-1,-1.003686E0,-3.6207283E-1,4.2759988E-1,1.3415998E0,-1.5378426E0,-9.582442E-1,-2.5592074E-1,-9.09811E-1,1.0865231E-1,6.8103176E-1,8.554874E-1,1.4353377E0,-1.572623E-1,-2.8886566E-2,-8.231717E-1,-1.2079248E0,-3.3052158E-1,2.41561E-1,-3.2977346E-1,-1.0385664E0,4.599398E-2,8.9660275E-1,-3.6879495E-1,7.326993E-1,6.044101E-1,1.2831234E0,1.2745011E0,1.5427132E-1,-1.0506879E0,-4.0866005E-1,-1.2240921E0,-4.475509E-1,9.626376E-2,-4.074569E-1,-6.1560935E-1,4.8107654E-1,-7.6165354E-1,3.347631E-1,4.915792E-4,-1.0833312E0,1.0130828E-1,-7.395539E-1,1.2409922E0,-9.339084E-2,-7.888436E-1,2.2730795E-1,4.8372176E-1,9.3321216E-1,-3.604302E-1,7.022073E-1,4.2535955E-1,1.4307501E0,7.521437E-1,1.3095483E0,-1.0760307E-1,1.8356148E-5,3.205004E-3,-6.558675E-2,-1.2313109E-1,-4.925273E-3,6.2298264E-2,-1.0759228E-1,4.9569547E-2,-5.164295E-2,8.634897E-3,-4.537261E-2,-1.0740399E-1,3.1229524E-2,5.9965968E-2,-8.5043974E-2,1.7224228E-2,-1.04771726E-1,1.1399666E-1,-5.791784E-2,-1.250541E-1,-5.67885E-2,-1.3295451E-2,2.26929E-2,-2.4388058E-2,-1.1819657E-1,1.3572149E-1,1.454853E-2,-9.6715905E-2,6.7599565E-2,4.504563E-3,-1.0740721E-1,5.827549E-2,-3.5113554E-2,1.1577942E-1,3.8180534E-2,9.900784E-2,1.723246E-2,2.6357336E-2,-1.17016196E-1,3.4776296E-2,1.11951485E-1,1.1242262E-1,-2.9667843E-2,6.0742803E-2,1.6427009E-1,9.427301E-3,1.2176098E-1,1.5294564E-1,1.174741E-1],"categories":[],"categories_nodes":[],"categories_segments":[],"categories_sizes":[],"default_left":[0,0,0,0,0,0,0,0,0,0,0,0,0,0,0,0,0,0,0,0,0,0,0,0,0,0,0,0,0,0,0,0,0,0,0,0,0,0,0,0,0,0,0,0,0,0,0,0,0,0,0,0,0,0,0,0,0,0,0,0,0,0,0,0,0,0,0,0,0,0,0,0,0,0,0,0,0,0,0,0,0,0,0,0,0,0,0,0,0,0,0,0,0,0,0,0,0,0,0,0,0,0,0,0,0,0,0],"id":2,"left_children":[1,3,5,7,9,11,13,15,17,19,21,23,25,27,29,-1,-1,31,33,35,37,39,41,43,45,47,49,51,53,55,-1,57,59,61,63,65,67,69,71,73,75,-1,77,79,81,83,85,87,89,91,93,95,97,99,101,103,105,-1,-1,-1,-1,-1,-1,-1,-1,-1,-1,-1,-1,-1,-1,-1,-1,-1,-1,-1,-1,-1,-1,-1,-1,-1,-1,-1,-1,-1,-1,-1,-1,-1,-1,-1,-1,-1,-1,-1,-1,-1,-1,-1,-1,-1,-1,-1,-1,-1,-1],"loss_changes":[1.2018098E3,8.59845E1,1.8174042E2,1.3438171E1,1.836774E1,3.874565E1,1.7024658E1,1.5661774E0,1.8189209E1,1.0076687E1,3.5068398E0,1.0515972E1,1.4775742E1,6.4429474E0,3.8077393E0,0E0,0E0,3.4678696E1,1.8807373E0,7.744318E0,7.6263103E0,3.36265E0,1.953846E0,8.727702E0,5.4678116E0,3.4867697E0,1.2289658E1,4.42848E0,2.4279785E0,1.5706787E0,0E0,6.3842163E0,1.4571768E1,1.5749817E0,4.4974403E0,9.225261E0,4.5862083E0,3.8389797E0,5.004834E0,2.015337E0,4.3102736E0,0E0,2.7375793E0,5.5307236E0,2.610797E0,1.2942677E0,4.002571E0,1.9446406E0,1.4869049E0,7.5218277E0,5.899544E0,2.700027E0,5.6036186E0,2.8284116E0,2.4985008E0,3.292395E0,2.041504E0,0E0,0E0,0E0,0E0,0E0,0E0,0E0,0E0,0E0,0E0,0E0,0E0,0E0,0E0,0E0,0E0,0E0,0E0,0E0,0E0,0E0,0E0,0E0,0E0,0E0,0E0,0E0,0E0,0E0,0E0,0E0,0E0,0E0,0E0,0E0,0E0,0E0,0E0,0E0,0E0,0E0,0E0,0E0,0E0,0E0,0E0,0E0,0E0,0E0,0E0],"parents":[2147483647,0,0,1,1,2,2,3,3,4,4,5,5,6,6,7,7,8,8,9,9,10,10,11,11,12,12,13,13,14,14,17,17,18,18,19,19,20,20,21,21,22,22,23,23,24,24,25,25,26,26,27,27,28,28,29,29,31,31,32,32,33,33,34,34,35,35,36,36,37,37,38,38,39,39,40,40,42,42,43,43,44,44,45,45,46,46,47,47,48,48,49,49,50,50,51,51,52,52,53,53,54,54,55,55,56,56],"right_children":[2,4,6,8,10,12,14,16,18,20,22,24,26,28,30,-1,-1,32,34,36,38,40,42,44,46,48,50,52,54,56,-1,58,60,62,64,66,68,70,72,74,76,-1,78,80,82,84,86,88,90,92,94,96,98,100,102,104,106,-1,-1,-1,-1,-1,-1,-1,-1,-1,-1,-1,-1,-1,-1,-1,-1,-1,-1,-1,-1,-1,-1,-1,-1,-1,-1,-1,-1,-1,-1,-1,-1,-1,-1,-1,-1,-1,-1,-1,-1,-1,-1,-1,-1,-1,-1,-1,-1,-1,-1],"split_conditions":[2.0625E1,1.15E1,4.52E1,6E0,9E0,6.4705884E-1,7.647059E-1,7.8333335E0,8E0,2.4666666E1,1.15E1,4.6E1,1.5275252E0,6.26E1,6.04E1,-1.572623E-1,-2.8886566E-2,7E0,9E0,-4.8333335E0,1.4589624E1,2.6E1,4E0,3.5E1,4.08E1,2.7E1,3.2E1,2.8666666E1,1.4E1,3.6E1,1.5427132E-1,4E-1,7.0710677E-1,9.066667E0,-1.25E-1,1.8E1,1.2125E1,1.4285715E-1,1.8424242E1,2.021E3,3.125E-1,4.915792E-4,6E0,1.6E1,2.2814468E1,4.2385773E1,3.4875E1,2.4333334E1,3.3E1,1.30048065E1,1.5E1,5.2E1,2.6E1,4E-1,8E0,3.1418829E1,-2.5E0,-1.0760307E-1,1.8356148E-5,3.205004E-3,-6.558675E-2,-1.2313109E-1,-4.925273E-3,6.2298264E-2,-1.0759228E-1,4.9569547E-2,-5.164295E-2,8.634897E-3,-4.537261E-2,-1.0740399E-1,3.1229524E-2,5.9965968E-2,-8.5043974E-2,1.7224228E-2,-1.04771726E-1,1.1399666E-1,-5.791784E-2,-1.250541E-1,-5.67885E-2,-1.3295451E-2,2.26929E-2,-2.4388058E-2,-1.1819657E-1,1.3572149E-1,1.454853E-2,-9.6715905E-2,6.7599565E-2,4.504563E-3,-1.0740721E-1,5.827549E-2,-3.5113554E-2,1.1577942E-1,3.8180534E-2,9.900784E-2,1.723246E-2,2.6357336E-2,-1.17016196E-1,3.4776296E-2,1.11951485E-1,1.1242262E-1,-2.9667843E-2,6.0742803E-2,1.6427009E-1,9.427301E-3,1.2176098E-1,1.5294564E-1,1.174741E-1],"split_indices":[7,7,6,2,2,12,12,7,2,5,6,5,13,6,6,0,0,2,15,14,13,0,5,0,6,0,5,5,16,5,0,9,13,14,14,0,7,9,14,4,12,0,15,16,13,13,7,5,0,13,14,6,16,9,0,13,14,0,0,0,0,0,0,0,0,0,0,0,0,0,0,0,0,0,0,0,0,0,0,0,0,0,0,0,0,0,0,0,0,0,0,0,0,0,0,0,0,0,0,0,0,0,0,0,0,0,0],"split_type":[0,0,0,0,0,0,0,0,0,0,0,0,0,0,0,0,0,0,0,0,0,0,0,0,0,0,0,0,0,0,0,0,0,0,0,0,0,0,0,0,0,0,0,0,0,0,0,0,0,0,0,0,0,0,0,0,0,0,0,0,0,0,0,0,0,0,0,0,0,0,0,0,0,0,0,0,0,0,0,0,0,0,0,0,0,0,0,0,0,0,0,0,0,0,0,0,0,0,0,0,0,0,0,0,0,0,0],"sum_hessian":[1.8110613E3,9.3224255E2,8.788187E2,6.133347E2,3.1890787E2,4.79254E2,3.9956473E2,4.551184E1,5.678229E2,2.6836563E2,5.0542244E1,2.128314E2,2.6642258E2,6.6230156E1,3.3333456E2,4.4026703E1,1.4851406E0,3.7126978E2,1.9655309E2,2.33662E2,3.470363E1,9.828137E0,4.0714104E1,1.9813403E2,1.4697376E1,1.2209115E1,2.5421347E2,4.325014E1,2.2980013E1,1.3859874E2,1.9473582E2,2.3871155E2,1.3255823E2,1.9186377E2,4.689309E0,3.5649784E1,1.9801222E2,7.2363153E0,2.7467314E1,5.868243E0,3.959894E0,1.7113868E0,3.900272E1,1.8591396E2,1.2220083E1,1.0716045E1,3.9813304E0,6.972531E0,5.2365837E0,1.1492416E2,1.3928932E2,3.733266E0,3.9516876E1,3.944188E0,1.9035826E1,1.0126713E1,1.2847203E2,2.3306696E2,5.6445856E0,4.79484E1,8.460983E1,1.906443E2,1.219473E0,1.7376006E0,2.9517083E0,2.1696312E1,1.395347E1,1.6889845E1,1.8112238E2,4.7380137E0,2.4983015E0,2.5725843E1,1.7414699E0,1.4693211E0,4.398922E0,1.9737058E0,1.9861883E0,2.8372576E1,1.0630142E1,6.4874626E1,1.2103932E2,6.494721E0,5.7253623E0,9.4722395E0,1.2438059E0,1.7438464E0,2.237484E0,1.9917008E0,4.98083E0,3.2388773E0,1.9977067E0,1.3733164E1,1.01190994E2,1.2932294E2,9.966382E0,2.4893734E0,1.2438927E0,2.2359205E1,1.7157671E1,1.7212031E0,2.222985E0,4.688652E0,1.4347173E1,4.6943893E0,5.432323E0,4.48932E1,8.3578835E1],"tree_param":{"num_deleted":"0","num_feature":"17","num_nodes":"107","size_leaf_vector":"1"}},{"base_weights":[-9.7431475E-3,-6.377971E-1,8.8836986E-1,-9.48649E-1,-2.406954E-1,5.2441084E-1,1.3195277E0,-8.315544E-1,-1.1911166E0,-4.192522E-1,8.140762E-2,2.7489257E-1,7.2308147E-1,1.3291514E0,-7.124823E-2,-1.063561E0,-3.1586406E-1,-1.2162678E0,-4.6034303E-1,-3.1700018E-1,-8.6747235E-1,-3.3861545E-1,2.6298797E-1,-6.0460293E-1,4.0010437E-1,6.381479E-1,1.0693108E0,8.611896E-1,1.3617207E0,-1.2354367E0,-7.518465E-1,2.0727063E-2,-5.903559E-1,-1.2273432E0,8.698243E-3,-7.779682E-1,4.5865405E-2,-7.0085317E-1,-2.2247343E-1,-1.1903926E0,-6.326706E-1,4.3064737E-1,-4.410219E-1,3.4442055E-1,-7.554701E-1,-7.9346395E-1,7.821181E-2,1.4067358E-1,3.5837325E-1,-1.4346856E-1,6.7588675E-1,-7.504796E-2,1.1421617E0,-1.7496432E-1,9.8388326E-1,1.0286129E-1,1.3713154E0,-9.0147816E-2,-1.3348968E-1,4.950023E-2,-8.001677E-2,2.1890698E-2,-4.3160375E-2,-7.741792E-2,3.2162007E-2,-1.1370263E-1,-1.3645709E-1,-1.31216785E-2,-1.2119367E-1,6.808576E-2,-8.0643326E-2,-7.188694E-2,-1.7098181E-2,-1.3299559E-1,5.4165823E-3,6.3338034E-2,-7.82041E-2,-4.811349E-2,1.3529469E-1,3.0799348E-2,-5.73879E-2,2.5172597E-2,9.029982E-2,-1.03705384E-1,-1.7093072E-3,-1.0389713E-1,-9.779437E-3,2.8737733E-2,8.876505E-2,-6.4982735E-2,9.928379E-2,7.1051344E-2,-1.1462077E-2,8.934554E-2,1.4730246E-1,1.1272277E-2,-3.854893E-2,1.0824E-1,-3.8915124E-2,9.6733555E-2,-8.0740064E-2,9.9872045E-2,1.3989724E-1],"categories":[],"categories_nodes":[],"categories_segments":[],"categories_sizes":[],"default_left":[0,0,0,0,0,0,0,0,0,0,0,0,0,0,0,0,0,0,0,0,0,0,0,0,0,0,0,0,0,0,0,0,0,0,0,0,0,0,0,0,0,0,0,0,0,0,0,0,0,0,0,0,0,0,0,0,0,0,0,0,0,0,0,0,0,0,0,0,0,0,0,0,0,0,0,0,0,0,0,0,0,0,0,0,0,0,0,0,0,0,0,0,0,0,0,0,0,0,0,0,0,0,0],"id":3,"left_children":[1,3,5,7,9,11,13,15,17,19,21,23,25,27,-1,29,31,33,35,37,39,41,43,45,47,49,51,53,55,57,59,61,63,65,-1,67,-1,69,71,73,75,77,79,81,83,85,-1,-1,87,89,91,-1,93,95,97,99,101,-1,-1,-1,-1,-1,-1,-1,-1,-1,-1,-1,-1,-1,-1,-1,-1,-1,-1,-1,-1,-1,-1,-1,-1,-1,-1,-1,-1,-1,-1,-1,-1,-1,-1,-1,-1,-1,-1,-1,-1,-1,-1,-1,-1,-1,-1],"loss_changes":[1.0145257E3,1.3042352E2,1.1545862E2,1.5855591E1,2.6840038E1,1.9779877E1,7.5595093E0,4.7931946E1,2.9491272E0,1.3475243E1,1.2830458E1,2.0093061E1,5.897629E0,3.9620361E0,0E0,1.3955933E1,1.1709463E1,2.761963E0,2.680653E0,8.765116E0,3.4287338E0,4.196607E0,9.980291E0,6.608488E0,6.149891E0,5.4702606E0,6.504509E0,3.3049583E0,3.6427002E0,4.693329E0,6.4992447E0,5.2790375E0,1.194529E1,7.0996094E-1,0E0,1.6056097E0,0E0,7.5684586E0,4.9571075E0,3.9081287E0,6.937971E0,6.101254E0,4.6925583E0,5.4272738E0,1.8514919E0,3.4200153E0,0E0,0E0,5.5105076E0,5.947377E0,4.842827E0,0E0,2.0869026E0,2.5289315E-1,3.42206E0,3.4963355E0,1.8056641E0,0E0,0E0,0E0,0E0,0E0,0E0,0E0,0E0,0E0,0E0,0E0,0E0,0E0,0E0,0E0,0E0,0E0,0E0,0E0,0E0,0E0,0E0,0E0,0E0,0E0,0E0,0E0,0E0,0E0,0E0,0E0,0E0,0E0,0E0,0E0,0E0,0E0,0E0,0E0,0E0,0E0,0E0,0E0,0E0,0E0,0E0],"parents":[2147483647,0,0,1,1,2,2,3,3,4,4,5,5,6,6,7,7,8,8,9,9,10,10,11,11,12,12,13,13,15,15,16,16,17,17,18,18,19,19,20,20,21,21,22,22,23,23,24,24,25,25,26,26,27,27,28,28,29,29,30,30,31,31,32,32,33,33,35,35,37,37,38,38,39,39,40,40,41,41,42,42,43,43,44,44,45,45,48,48,49,49,50,50,52,52,53,53,54,54,55,55,56,56],"right_children":[2,4,6,8,10,12,14,16,18,20,22,24,26,28,-1,30,32,34,36,38,40,42,44,46,48,50,52,54,56,58,60,62,64,66,-1,68,-1,70,72,74,76,78,80,82,84,86,-1,-1,88,90,92,-1,94,96,98,100,102,-1,-1,-1,-1,-1,-1,-1,-1,-1,-1,-1,-1,-1,-1,-1,-1,-1,-1,-1,-1,-1,-1,-1,-1,-1,-1,-1,-1,-1,-1,-1,-1,-1,-1,-1,-1,-1,-1,-1,-1,-1,-1,-1,-1,-1,-1],"split_conditions":[2.4333334E1,1.125E1,4.8142857E1,8E0,2.0625E1,3.2625E1,8E0,7E0,5E0,8E0,1.4E1,1.275E1,4.5E1,3.7666668E1,-7.124823E-2,6E0,3E0,1.2E1,2.9E1,7.3333335E0,3E0,6E0,4.8E0,5E-1,3E0,6E-1,2.5666666E1,1.2E1,6.1538464E-1,2E0,3E0,2.02E3,1.075E1,6E0,8.698243E-3,2.022E3,4.5865405E-2,4E0,5E0,3.6E1,2E-1,2.425E1,3E0,3.35E1,6.666667E-1,3E1,7.821181E-2,1.4067358E-1,4.9E1,2.0333334E1,2.023E3,-7.504796E-2,4.7333332E1,-2.1416666E1,-1.3E1,1.1E1,7E0,-9.0147816E-2,-1.3348968E-1,4.950023E-2,-8.001677E-2,2.1890698E-2,-4.3160375E-2,-7.741792E-2,3.2162007E-2,-1.1370263E-1,-1.3645709E-1,-1.31216785E-2,-1.2119367E-1,6.808576E-2,-8.0643326E-2,-7.188694E-2,-1.7098181E-2,-1.3299559E-1,5.4165823E-3,6.3338034E-2,-7.82041E-2,-4.811349E-2,1.3529469E-1,3.0799348E-2,-5.73879E-2,2.5172597E-2,9.029982E-2,-1.03705384E-1,-1.7093072E-3,-1.0389713E-1,-9.779437E-3,2.8737733E-2,8.876505E-2,-6.4982735E-2,9.928379E-2,7.1051344E-2,-1.1462077E-2,8.934554E-2,1.4730246E-1,1.1272277E-2,-3.854893E-2,1.0824E-1,-3.8915124E-2,9.6733555E-2,-8.0740064E-2,9.9872045E-2,1.3989724E-1],"split_indices":[5,7,11,2,7,7,2,2,14,2,16,11,16,5,0,7,16,15,1,11,15,1,14,8,0,10,5,16,12,16,1,4,11,7,0,4,0,5,1,0,10,7,16,11,10,16,0,0,16,14,4,0,5,14,14,0,2,0,0,0,0,0,0,0,0,0,0,0,0,0,0,0,0,0,0,0,0,0,0,0,0,0,0,0,0,0,0,0,0,0,0,0,0,0,0,0,0,0,0,0,0,0,0],"split_type":[0,0,0,0,0,0,0,0,0,0,0,0,0,0,0,0,0,0,0,0,0,0,0,0,0,0,0,0,0,0,0,0,0,0,0,0,0,0,0,0,0,0,0,0,0,0,0,0,0,0,0,0,0,0,0,0,0,0,0,0,0,0,0,0,0,0,0,0,0,0,0,0,0,0,0,0,0,0,0,0,0,0,0,0,0,0,0,0,0,0,0,0,0,0,0,0,0,0,0,0,0,0,0],"sum_hessian":[1.7965975E3,1.0574255E3,7.39172E2,5.923467E2,4.6507883E2,4.0202322E2,3.371488E2,4.024308E2,1.8991588E2,2.990177E2,1.6606111E2,1.7926315E2,2.2276006E2,3.3590387E2,1.2449372E0,2.768258E2,1.25604996E2,1.8295471E2,6.9611573E0,2.4486432E2,5.41534E1,4.9860752E1,1.1620036E2,2.186355E1,1.573996E2,1.8116225E2,4.159781E1,2.364271E1,3.1226117E2,1.7652737E2,1.0029844E2,5.683567E1,6.8769325E1,1.8147078E2,1.4839346E0,5.287235E0,1.6739227E0,4.711718E1,1.9774713E2,2.1085276E1,3.3068123E1,5.4812326E0,4.437952E1,1.0821006E2,7.990303E0,1.9619356E1,2.2441957E0,4.9634132E0,1.5243619E2,8.215153E0,1.729471E2,1.2431377E0,4.035467E1,2.4580798E0,2.1184631E1,2.450648E0,3.0981052E2,4.281858E1,1.3370879E2,3.397129E0,9.6901306E1,3.9879353E1,1.6956314E1,5.7358833E1,1.141049E1,1.15041534E2,6.642925E1,2.6460865E0,2.6411483E0,2.957968E0,4.415921E1,1.7366594E1,1.8038054E2,1.8897516E1,2.1877596E0,3.1477482E0,2.9920376E1,2.9968688E0,2.4843638E0,6.4873304E0,3.789219E1,9.405287E1,1.4157187E1,5.491564E0,2.4987392E0,1.4136861E1,5.4824944E0,1.3576762E2,1.6668568E1,5.978948E0,2.2362049E0,1.6578635E2,7.1607566E0,2.5150024E1,1.5204647E1,1.2349951E0,1.2230848E0,1.9963875E1,1.2207564E0,1.2247782E0,1.2258699E0,2.3971891E1,2.8583862E2],"tree_param":{"num_deleted":"0","num_feature":"17","num_nodes":"103","size_leaf_vector":"1"}},{"base_weights":[-5.7685813E-3,-5.2277935E-1,8.556231E-1,-7.862702E-1,-1.1145996E-1,5.2612686E-1,1.2073916E0,-8.389984E-1,-2.4235496E-1,-2.0178431E-1,2.7321196E-1,4.390594E-1,9.6624595E-1,4.6908736E-1,1.2334493E0,-9.125768E-1,-6.729424E-1,-3.5525626E-1,6.838269E-1,-2.6113275E-1,1.084464E-1,5.569695E-1,-2.1654066E-2,3.8450444E-1,1.0851427E0,4.0228945E-1,1.1492563E0,-4.164035E-1,7.467382E-1,1.0662626E0,1.3363854E0,-6.061986E-1,-1.0108312E0,-8.414438E-3,-7.089313E-1,-8.0392055E-2,-7.7169114E-1,9.269952E-1,-2.4064917E-2,-6.9361365E-1,-2.0502858E-1,2.9348108E-1,-5.039892E-1,1.1323075E-1,7.3284525E-1,-1.5227038E-1,1.3505007E-1,-2.3141611E-2,5.4040426E-1,1.6867153E-1,1.2314882E0,8.279263E-1,-4.6644297E-1,5.4437447E-1,1.267792E0,2.9529154E-3,-6.494879E-2,1.0501688E-1,-4.811489E-2,9.788116E-1,1.3074406E0,3.9171943E-1,1.3486131E0,-4.5152407E-2,-7.333026E-2,-1.15989365E-1,-8.668383E-2,3.479239E-2,-8.968512E-2,-7.478624E-2,-2.2338623E-2,1.631972E-2,-7.411666E-2,-1.0653769E-1,-9.461756E-3,1.3367297E-1,3.5136607E-2,-5.045631E-2,-1.3356346E-1,-3.411648E-2,-3.969612E-3,-2.1641944E-4,7.673675E-2,-1.04163885E-1,5.63985E-2,9.846556E-2,-5.8215268E-2,8.24426E-2,-7.784324E-2,-2.5837428E-3,-9.62289E-2,-3.4587696E-2,2.9423654E-2,-1.0041132E-2,6.252899E-2,1.0222244E-1,-6.604879E-2,1.4124869E-1,6.224798E-2,-5.6679178E-2,1.2627615E-1,8.25827E-3,-1.0947435E-1,1.05437815E-1,-6.445903E-2,3.5876025E-2,1.3044046E-1,1.8129727E-2,1.00646906E-1,1.3652267E-1,7.213755E-3,9.900218E-2,-5.135997E-2,4.4476625E-2,1.3566026E-1],"categories":[],"categories_nodes":[],"categories_segments":[],"categories_sizes":[],"default_left":[0,0,0,0,0,0,0,0,0,0,0,0,0,0,0,0,0,0,0,0,0,0,0,0,0,0,0,0,0,0,0,0,0,0,0,0,0,0,0,0,0,0,0,0,0,0,0,0,0,0,0,0,0,0,0,0,0,0,0,0,0,0,0,0,0,0,0,0,0,0,0,0,0,0,0,0,0,0,0,0,0,0,0,0,0,0,0,0,0,0,0,0,0,0,0,0,0,0,0,0,0,0,0,0,0,0,0,0,0,0,0,0,0,0,0],"id":4,"left_children":[1,3,5,7,9,11,13,15,17,19,21,23,25,27,29,31,33,35,37,39,41,43,45,47,49,51,53,55,57,59,61,63,65,67,69,71,73,75,-1,77,79,81,83,85,87,89,-1,91,93,95,97,99,101,103,105,-1,-1,-1,-1,107,109,111,113,-1,-1,-1,-1,-1,-1,-1,-1,-1,-1,-1,-1,-1,-1,-1,-1,-1,-1,-1,-1,-1,-1,-1,-1,-1,-1,-1,-1,-1,-1,-1,-1,-1,-1,-1,-1,-1,-1,-1,-1,-1,-1,-1,-1,-1,-1,-1,-1,-1,-1,-1,-1],"loss_changes":[7.9048285E2,1.2012744E2,7.653055E1,1.9182251E1,1.5144116E1,1.2816666E1,5.601349E0,6.9097595E0,6.636366E0,6.5141983E0,6.9571824E0,9.815006E0,5.341564E0,3.400024E0,3.9041443E0,1.2148193E1,4.6069717E0,6.251356E0,1.7933869E0,7.0397835E0,6.6384544E0,3.2211237E0,7.6737356E0,1.712357E1,2.7503834E0,6.0495424E0,2.3153496E0,3.9765012E-1,4.202488E0,1.3134308E0,1.6400146E0,1.7416916E0,5.851776E0,3.7695813E0,3.2914658E0,5.6486177E0,4.2368975E0,8.833313E-1,0E0,3.4005432E0,5.9155445E0,6.2527256E0,8.429514E0,8.57207E0,4.8128433E0,3.963674E0,0E0,7.8293533E0,1.0659256E1,3.6445527E0,1.1996574E0,7.168577E0,2.048413E0,5.9071794E0,6.7349625E-1,0E0,0E0,0E0,0E0,1.8955307E0,2.0244217E0,2.5711226E0,7.318115E-1,0E0,0E0,0E0,0E0,0E0,0E0,0E0,0E0,0E0,0E0,0E0,0E0,0E0,0E0,0E0,0E0,0E0,0E0,0E0,0E0,0E0,0E0,0E0,0E0,0E0,0E0,0E0,0E0,0E0,0E0,0E0,0E0,0E0,0E0,0E0,0E0,0E0,0E0,0E0,0E0,0E0,0E0,0E0,0E0,0E0,0E0,0E0,0E0,0E0,0E0,0E0,0E0],"parents":[2147483647,0,0,1,1,2,2,3,3,4,4,5,5,6,6,7,7,8,8,9,9,10,10,11,11,12,12,13,13,14,14,15,15,16,16,17,17,18,18,19,19,20,20,21,21,22,22,23,23,24,24,25,25,26,26,27,27,28,28,29,29,30,30,31,31,32,32,33,33,34,34,35,35,36,36,37,37,39,39,40,40,41,41,42,42,43,43,44,44,45,45,47,47,48,48,49,49,50,50,51,51,52,52,53,53,54,54,59,59,60,60,61,61,62,62],"right_children":[2,4,6,8,10,12,14,16,18,20,22,24,26,28,30,32,34,36,38,40,42,44,46,48,50,52,54,56,58,60,62,64,66,68,70,72,74,76,-1,78,80,82,84,86,88,90,-1,92,94,96,98,100,102,104,106,-1,-1,-1,-1,108,110,112,114,-1,-1,-1,-1,-1,-1,-1,-1,-1,-1,-1,-1,-1,-1,-1,-1,-1,-1,-1,-1,-1,-1,-1,-1,-1,-1,-1,-1,-1,-1,-1,-1,-1,-1,-1,-1,-1,-1,-1,-1,-1,-1,-1,-1,-1,-1,-1,-1,-1,-1,-1,-1],"split_conditions":[2.7666666E1,1.15E1,4.8142857E1,1.6527035E1,7.1428573E-1,4.5E1,1.1250185E1,7.6E0,6.666667E-1,3.3333333E0,-3.952381E0,6E1,3.3333332E1,9E0,5.92E1,1E0,-4.230769E0,1.2E1,3E0,2.5E-1,8.416667E0,2.58E1,3.68E1,4E0,1.4E1,2.5812511E1,3.44E1,5.6666668E1,3E1,4.9E1,6.875E-1,1.9E1,3.8E0,2.6E1,1.76E1,1.92E1,2.32E1,2.9E1,-2.4064917E-2,2.8E1,1.9333334E1,2.2E1,2.2E1,2.7666666E1,3.9045532E1,3E1,1.3505007E-1,1.7E1,4.7058824E-1,4E-1,2.2E1,1.481071E1,3.35E1,2.295609E1,1.25E-1,2.9529154E-3,-6.494879E-2,1.0501688E-1,-4.811489E-2,4.8833332E1,5.86E1,3.1E1,1.4589624E1,-4.5152407E-2,-7.333026E-2,-1.15989365E-1,-8.668383E-2,3.479239E-2,-8.968512E-2,-7.478624E-2,-2.2338623E-2,1.631972E-2,-7.411666E-2,-1.0653769E-1,-9.461756E-3,1.3367297E-1,3.5136607E-2,-5.045631E-2,-1.3356346E-1,-3.411648E-2,-3.969612E-3,-2.1641944E-4,7.673675E-2,-1.04163885E-1,5.63985E-2,9.846556E-2,-5.8215268E-2,8.24426E-2,-7.784324E-2,-2.5837428E-3,-9.62289E-2,-3.4587696E-2,2.9423654E-2,-1.0041132E-2,6.252899E-2,1.0222244E-1,-6.604879E-2,1.4124869E-1,6.224798E-2,-5.6679178E-2,1.2627615E-1,8.25827E-3,-1.0947435E-1,1.05437815E-1,-6.445903E-2,3.5876025E-2,1.3044046E-1,1.8129727E-2,1.00646906E-1,1.3652267E-1,7.213755E-3,9.900218E-2,-5.135997E-2,4.4476625E-2,1.3566026E-1],"split_indices":[5,11,11,13,10,16,13,6,10,14,14,6,5,1,6,16,14,5,15,10,14,6,6,15,16,13,6,5,1,16,12,1,6,1,6,6,6,16,0,1,11,1,16,11,13,6,0,16,12,9,1,13,11,13,9,0,0,0,0,11,6,1,13,0,0,0,0,0,0,0,0,0,0,0,0,0,0,0,0,0,0,0,0,0,0,0,0,0,0,0,0,0,0,0,0,0,0,0,0,0,0,0,0,0,0,0,0,0,0,0,0,0,0,0,0],"split_type":[0,0,0,0,0,0,0,0,0,0,0,0,0,0,0,0,0,0,0,0,0,0,0,0,0,0,0,0,0,0,0,0,0,0,0,0,0,0,0,0,0,0,0,0,0,0,0,0,0,0,0,0,0,0,0,0,0,0,0,0,0,0,0,0,0,0,0,0,0,0,0,0,0,0,0,0,0,0,0,0,0,0,0,0,0,0,0,0,0,0,0,0,0,0,0,0,0,0,0,0,0,0,0,0,0,0,0,0,0,0,0,0,0,0,0],"sum_hessian":[1.7729703E3,1.1082108E3,6.647595E2,6.749359E2,4.3327487E2,3.4453467E2,3.2022485E2,6.1479407E2,6.0141876E1,3.512692E2,8.200567E1,2.8930075E2,5.5233902E1,1.15645275E1,3.086603E2,4.229097E2,1.9188435E2,5.4156628E1,5.985248E0,2.949939E2,5.6275307E1,4.1337032E1,4.0668636E1,2.6824536E2,2.105539E1,1.4316132E1,4.091777E1,2.6412497E0,8.923278E0,1.219499E2,1.8671042E2,1.0443347E2,3.1847623E2,9.921412E0,1.8196295E2,3.334235E1,2.081428E1,4.7366304E0,1.2486179E0,3.2569317E1,2.6242456E2,4.361787E1,1.2657436E1,1.2199983E1,2.9137049E1,3.79456E1,2.7230384E0,7.444321E1,1.9380215E2,3.1956382E0,1.785975E1,9.63998E0,4.6761518E0,7.620944E0,3.3296825E1,1.2064341E0,1.4348156E0,7.271186E0,1.6520916E0,9.321036E1,2.873954E1,2.8080504E0,1.8390236E2,4.9161083E1,5.5272392E1,1.530169E2,1.6545932E2,7.515462E0,2.40595E0,1.6795595E2,1.40069895E1,2.4911825E1,8.430524E0,1.4117295E1,6.6969833E0,1.9946362E0,2.7419941E0,2.6540155E1,6.029162E0,1.4333652E2,1.19088066E2,2.7473381E1,1.614449E1,8.435445E0,4.221992E0,5.2299914E0,6.9699917E0,2.7900795E1,1.2362533E0,3.3715034E1,4.230564E0,3.686557E1,3.757764E1,2.2647747E1,1.7115442E2,1.459922E0,1.7357163E0,1.2750848E1,5.1089034E0,2.2190366E0,7.4209437E0,2.9590325E0,1.7171191E0,5.4124727E0,2.2084713E0,1.7072557E0,3.1589571E1,3.3773742E0,8.9832985E1,2.7354742E1,1.3847972E0,1.6343734E0,1.173677E0,2.1078749E0,1.817945E2],"tree_param":{"num_deleted":"0","num_feature":"17","num_nodes":"115","size_leaf_vector":"1"}},{"base_weights":[-7.449296E-3,-5.3817165E-1,7.1657103E-1,-7.334167E-1,-2.1495E-1,3.3223394E-1,1.0491046E0,-1.3310137E0,-6.8588275E-1,-1.3271718E-1,-7.804676E-1,-2.1923451E-1,3.9663538E-1,8.766699E-1,1.2664447E0,-6.4245462E-3,-1.3690864E0,-5.929267E-1,-8.873543E-1,-1.6991718E-1,7.199288E-1,-1.2262045E0,-6.043821E-1,2.5236294E-1,-8.982744E-1,4.5000768E-1,-6.785458E-2,-4.0210572E-1,9.000602E-1,4.915073E-1,1.281728E0,-1.3882421E-1,-4.316155E-2,-8.332355E-1,-2.6854903E-1,-1.053149E0,-7.4393183E-1,-2.9531103E-1,7.738972E-2,1.0370358E0,1.6698648E-1,-1.4360715E-1,3.0319503E-4,-3.0168548E-1,-8.639765E-1,-4.0204516E-1,5.951757E-1,-3.598112E-1,-1.1744001E0,3.2600644E-1,6.826403E-1,-1.0079478E0,1.1589581E-1,3.3243187E-2,-8.430015E-2,4.3884233E-1,9.515044E-1,-2.6941333E-2,1.0519921E-1,5.2264345E-1,1.2942638E0,1.2125502E-2,-8.7067984E-2,1.53969405E-2,-4.402099E-2,-8.856311E-2,-1.23483084E-1,-2.601004E-2,-8.015748E-2,-5.592124E-3,-4.231186E-2,-6.1007585E-2,1.9340325E-2,1.2695505E-1,3.8844165E-3,-7.5248234E-2,5.9759237E-2,-4.3906838E-2,6.639729E-2,-9.82516E-2,3.4435082E-3,1.190372E-2,-6.416091E-2,-2.3881404E-2,6.871056E-2,1.4264296E-2,-6.89981E-2,-1.3585499E-1,-9.498758E-3,2.847766E-2,1.18473016E-1,-1.2983835E-2,8.237225E-2,-1.086101E-2,-1.2441746E-1,-6.5353625E-2,3.4642685E-2,-1.1881842E-2,8.258876E-2,9.622863E-2,-4.531303E-2,1.0736008E-1,-5.6085177E-2,3.8345758E-2,1.2983468E-1],"categories":[],"categories_nodes":[],"categories_segments":[],"categories_sizes":[],"default_left":[0,0,0,0,0,0,0,0,0,0,0,0,0,0,0,0,0,0,0,0,0,0,0,0,0,0,0,0,0,0,0,0,0,0,0,0,0,0,0,0,0,0,0,0,0,0,0,0,0,0,0,0,0,0,0,0,0,0,0,0,0,0,0,0,0,0,0,0,0,0,0,0,0,0,0,0,0,0,0,0,0,0,0,0,0,0,0,0,0,0,0,0,0,0,0,0,0,0,0,0,0,0,0,0,0],"id":5,"left_children":[1,3,5,7,9,11,13,15,17,19,21,23,25,27,29,-1,31,33,35,37,39,41,43,45,47,49,51,53,55,57,59,-1,-1,61,63,65,67,69,71,73,75,-1,-1,77,79,81,83,85,87,89,91,93,95,-1,-1,97,99,-1,-1,101,103,-1,-1,-1,-1,-1,-1,-1,-1,-1,-1,-1,-1,-1,-1,-1,-1,-1,-1,-1,-1,-1,-1,-1,-1,-1,-1,-1,-1,-1,-1,-1,-1,-1,-1,-1,-1,-1,-1,-1,-1,-1,-1,-1,-1],"loss_changes":[6.730985E2,6.3629578E1,9.43457E1,1.6974945E1,1.766344E1,1.234531E1,1.3759552E1,2.0985107E0,1.043692E1,1.0740249E1,3.0496483E0,1.1991103E1,7.701313E0,7.076645E0,1.4223022E0,0E0,1.9029999E-1,3.1235764E1,3.5633392E0,9.994986E0,2.314124E0,3.2818623E0,2.6147318E0,5.278114E0,1.8487644E0,7.78706E0,5.7756104E0,1.8100097E0,4.820572E0,2.4044788E0,9.3463135E-1,0E0,0E0,8.374313E0,1.2631719E1,1.4137039E0,2.62006E0,6.511194E0,8.8099985E0,1.9985256E0,2.9686086E0,0E0,0E0,2.7365847E0,2.0745592E0,1.1147472E0,1.3250527E0,1.1966443E0,1.7903681E0,6.142893E0,1.1068459E1,1.0246658E0,5.2460833E0,0E0,0E0,5.2803116E0,3.4309845E0,0E0,0E0,3.2454128E0,1.1898804E-1,0E0,0E0,0E0,0E0,0E0,0E0,0E0,0E0,0E0,0E0,0E0,0E0,0E0,0E0,0E0,0E0,0E0,0E0,0E0,0E0,0E0,0E0,0E0,0E0,0E0,0E0,0E0,0E0,0E0,0E0,0E0,0E0,0E0,0E0,0E0,0E0,0E0,0E0,0E0,0E0,0E0,0E0,0E0,0E0],"parents":[2147483647,0,0,1,1,2,2,3,3,4,4,5,5,6,6,7,7,8,8,9,9,10,10,11,11,12,12,13,13,14,14,16,16,17,17,18,18,19,19,20,20,21,21,22,22,23,23,24,24,25,25,26,26,27,27,28,28,29,29,30,30,33,33,34,34,35,35,36,36,37,37,38,38,39,39,40,40,43,43,44,44,45,45,46,46,47,47,48,48,49,49,50,50,51,51,52,52,55,55,56,56,59,59,60,60],"right_children":[2,4,6,8,10,12,14,16,18,20,22,24,26,28,30,-1,32,34,36,38,40,42,44,46,48,50,52,54,56,58,60,-1,-1,62,64,66,68,70,72,74,76,-1,-1,78,80,82,84,86,88,90,92,94,96,-1,-1,98,100,-1,-1,102,104,-1,-1,-1,-1,-1,-1,-1,-1,-1,-1,-1,-1,-1,-1,-1,-1,-1,-1,-1,-1,-1,-1,-1,-1,-1,-1,-1,-1,-1,-1,-1,-1,-1,-1,-1,-1,-1,-1,-1,-1,-1,-1,-1,-1],"split_conditions":[6.25E-1,1.05E1,4.05E1,6E0,9E0,4E0,6.2E1,2E0,8E0,3.825E1,3E0,2.02E3,1.5E1,2.64E1,7.0710677E-1,-6.4245462E-3,3.6E1,7E0,2.828427E0,2E0,2.021E3,1E1,1.7E1,2.22E1,1.8833334E1,3.56E1,3.08E1,2.32E1,6E0,1.5E1,7.1428573E-1,-1.3882421E-1,-4.316155E-2,3E0,7.0710677E-1,1E0,3E0,-4.428571E0,1.2333333E1,4.2857143E-1,1.1E1,-1.4360715E-1,3.0319503E-4,5E-1,3.452381E0,1.6E1,6E0,7.1428573E-1,3.26E1,1.0714286E1,-4.0833335E0,1.481071E1,1.5E1,3.3243187E-2,-8.430015E-2,4.8833332E1,1.9E1,-2.6941333E-2,1.0519921E-1,7.1333336E1,3.48E1,1.2125502E-2,-8.7067984E-2,1.53969405E-2,-4.402099E-2,-8.856311E-2,-1.23483084E-1,-2.601004E-2,-8.015748E-2,-5.592124E-3,-4.231186E-2,-6.1007585E-2,1.9340325E-2,1.2695505E-1,3.8844165E-3,-7.5248234E-2,5.9759237E-2,-4.3906838E-2,6.639729E-2,-9.82516E-2,3.4435082E-3,1.190372E-2,-6.416091E-2,-2.3881404E-2,6.871056E-2,1.4264296E-2,-6.89981E-2,-1.3585499E-1,-9.498758E-3,2.847766E-2,1.18473016E-1,-1.2983835E-2,8.237225E-2,-1.086101E-2,-1.2441746E-1,-6.5353625E-2,3.4642685E-2,-1.1881842E-2,8.258876E-2,9.622863E-2,-4.531303E-2,1.0736008E-1,-5.6085177E-2,3.8345758E-2,1.2983468E-1],"split_indices":[10,11,11,2,2,16,11,2,2,11,15,4,14,6,13,0,1,2,13,14,4,16,1,6,11,6,6,6,16,1,10,0,0,1,13,16,16,14,11,9,16,0,0,8,14,1,1,10,6,14,14,13,16,0,0,11,15,0,0,11,6,0,0,0,0,0,0,0,0,0,0,0,0,0,0,0,0,0,0,0,0,0,0,0,0,0,0,0,0,0,0,0,0,0,0,0,0,0,0,0,0,0,0,0,0],"split_type":[0,0,0,0,0,0,0,0,0,0,0,0,0,0,0,0,0,0,0,0,0,0,0,0,0,0,0,0,0,0,0,0,0,0,0,0,0,0,0,0,0,0,0,0,0,0,0,0,0,0,0,0,0,0,0,0,0,0,0,0,0,0,0,0,0,0,0,0,0,0,0,0,0,0,0,0,0,0,0,0,0,0,0,0,0,0,0,0,0,0,0,0,0,0,0,0,0,0,0,0,0,0,0,0,0],"sum_hessian":[1.7496995E3,1.00977185E3,7.399276E2,6.287191E2,3.810527E2,3.4415625E2,3.9577136E2,4.4335194E1,5.84384E2,3.3375546E2,4.729723E1,3.5736984E1,3.0841928E2,2.2349055E2,1.7228079E2,1.3720261E0,4.296317E1,4.025816E2,1.8180237E2,3.2057007E2,1.31854E1,1.1704692E1,3.5592537E1,2.1460728E1,1.4276255E1,2.7666074E2,3.175855E1,3.7236314E0,2.1976692E2,3.9733543E0,1.6830743E2,4.1631653E1,1.3315175E0,2.3035722E2,1.7222437E2,8.138234E1,1.0042002E2,2.1258661E2,1.0798346E2,7.8233175E0,5.3620825E0,9.854051E0,1.8506408E0,1.7430304E1,1.8162235E1,7.3181167E0,1.4142611E1,5.619984E0,8.656271E0,1.820325E2,9.462823E1,4.459205E0,2.7299347E1,1.4889804E0,2.234651E0,2.3009365E1,1.9675755E2,1.9056044E0,2.06775E0,3.4279068E0,1.6487953E2,8.611197E0,2.2174603E2,4.9786102E1,1.22438255E2,4.5398094E1,3.598425E1,1.1277087E1,8.914294E1,7.449373E1,1.3809288E2,1.4976718E1,9.300674E1,6.1247854E0,1.6985319E0,1.4718206E0,3.8902621E0,1.5736772E1,1.6935322E0,1.5962476E1,2.1997588E0,2.4632788E0,4.854838E0,1.2455124E0,1.2897099E1,2.4537797E0,3.1662045E0,7.1738048E0,1.4824662E0,1.7496361E2,7.068889E0,1.4012322E1,8.0615906E1,1.2313004E0,3.2279048E0,5.8705583E0,2.1428787E1,9.710844E0,1.3298521E1,1.9557129E2,1.1862687E0,2.2784479E0,1.1494589E0,1.1594037E0,1.6372012E2],"tree_param":{"num_deleted":"0","num_feature":"17","num_nodes":"105","size_leaf_vector":"1"}},{"base_weights":[-9.6702104E-4,-5.5363613E-1,6.1524034E-1,-7.494013E-1,-2.3968877E-1,3.0228314E-1,1.0176476E0,-1.2854569E0,-7.05969E-1,-1.6778238E-1,-6.2897855E-1,1.8806553E-1,5.66823E-1,8.2045007E-1,1.1723919E0,-1.304271E0,-4.1054804E-2,-6.033515E-1,-9.105897E-1,-4.0584482E-2,-3.8481712E-1,-6.824615E-1,4.5697097E-2,2.8720656E-1,-1.799216E-1,2.7355126E-1,7.0265E-1,-6.794433E-2,8.800838E-1,2.9290453E-1,1.1930293E0,-3.7731055E-2,-1.3222727E-1,-7.88054E-1,-2.985813E-1,-9.3846494E-1,1.0133373E-1,-2.4477892E-1,8.6017095E-2,-6.970786E-2,-5.8660513E-1,-1.0644197E0,-4.1974515E-1,-1.2555121E-1,3.7031117E-1,-1.7021447E-2,-7.974424E-1,4.3033028E-1,-3.988297E-1,8.196892E-1,3.511001E-1,9.595666E-1,-8.1766796E-1,-2.9773824E-2,9.1876173E-1,-6.002533E-2,8.825995E-2,1.200492E0,1.0261836E-2,-8.760421E-2,-2.8959868E-2,-7.2236257E-3,-4.4468544E-2,-8.899869E-2,-1.3425337E-1,9.655833E-2,-7.722114E-2,6.0896408E-2,-3.5076316E-2,-9.741199E-3,3.288151E-2,6.608579E-2,-2.2606747E-2,4.92615E-2,-6.3546814E-2,-1.2080457E-1,2.6626093E-3,5.20411E-3,-6.742971E-2,-1.11325435E-1,7.042184E-3,3.995452E-2,-4.8274748E-2,-3.459187E-2,2.5777027E-2,-2.0508647E-2,-1.320876E-1,1.9345976E-2,8.782565E-2,2.1633128E-2,-9.112101E-2,-3.2924365E-2,8.738514E-2,8.495783E-2,-8.06183E-3,2.5045902E-2,1.18015826E-1,-1.4355397E-1,-3.3216055E-2,3.0517075E-2,-6.760607E-2,9.3726784E-2,-5.0568253E-2,8.211013E-2,1.21862315E-1],"categories":[],"categories_nodes":[],"categories_segments":[],"categories_sizes":[],"default_left":[0,0,0,0,0,0,0,0,0,0,0,0,0,0,0,0,0,0,0,0,0,0,0,0,0,0,0,0,0,0,0,0,0,0,0,0,0,0,0,0,0,0,0,0,0,0,0,0,0,0,0,0,0,0,0,0,0,0,0,0,0,0,0,0,0,0,0,0,0,0,0,0,0,0,0,0,0,0,0,0,0,0,0,0,0,0,0,0,0,0,0,0,0,0,0,0,0,0,0,0,0,0,0,0,0],"id":6,"left_children":[1,3,5,7,9,11,13,15,17,19,21,23,25,27,29,31,-1,33,35,37,39,41,-1,43,45,47,49,51,53,55,57,-1,-1,59,61,63,65,67,69,71,73,75,77,79,81,83,85,87,89,91,93,95,97,99,101,-1,-1,103,-1,-1,-1,-1,-1,-1,-1,-1,-1,-1,-1,-1,-1,-1,-1,-1,-1,-1,-1,-1,-1,-1,-1,-1,-1,-1,-1,-1,-1,-1,-1,-1,-1,-1,-1,-1,-1,-1,-1,-1,-1,-1,-1,-1,-1,-1,-1],"loss_changes":[5.844426E2,5.5423553E1,1.0187985E2,1.2055237E1,9.662165E0,1.3727814E1,9.857513E0,1.3137817E-1,1.0311737E1,8.15311E0,3.4505253E0,1.1773099E1,5.28804E0,8.4953E0,3.2140503E0,1.5518951E-1,0E0,1.9323616E1,4.9129333E0,4.8728223E0,6.9039307E0,4.761709E0,0E0,8.741533E0,6.907654E0,4.9349194E0,3.5547638E0,9.215377E0,5.280777E0,3.5986822E0,1.4351807E0,0E0,0E0,9.2079315E0,4.3569984E0,2.0630798E0,4.8838634E0,6.736395E0,5.2245607E0,5.149602E0,3.8170967E0,3.2447395E0,3.9266057E0,8.446095E0,5.46122E0,5.101874E0,4.1752844E0,3.7688766E0,3.053698E0,4.6011047E0,5.464759E0,4.9855185E-1,1.5832205E0,1.7336813E0,4.2495346E0,0E0,0E0,3.071289E-1,0E0,0E0,0E0,0E0,0E0,0E0,0E0,0E0,0E0,0E0,0E0,0E0,0E0,0E0,0E0,0E0,0E0,0E0,0E0,0E0,0E0,0E0,0E0,0E0,0E0,0E0,0E0,0E0,0E0,0E0,0E0,0E0,0E0,0E0,0E0,0E0,0E0,0E0,0E0,0E0,0E0,0E0,0E0,0E0,0E0,0E0,0E0],"parents":[2147483647,0,0,1,1,2,2,3,3,4,4,5,5,6,6,7,7,8,8,9,9,10,10,11,11,12,12,13,13,14,14,15,15,17,17,18,18,19,19,20,20,21,21,23,23,24,24,25,25,26,26,27,27,28,28,29,29,30,30,33,33,34,34,35,35,36,36,37,37,38,38,39,39,40,40,41,41,42,42,43,43,44,44,45,45,46,46,47,47,48,48,49,49,50,50,51,51,52,52,53,53,54,54,57,57],"right_children":[2,4,6,8,10,12,14,16,18,20,22,24,26,28,30,32,-1,34,36,38,40,42,-1,44,46,48,50,52,54,56,58,-1,-1,60,62,64,66,68,70,72,74,76,78,80,82,84,86,88,90,92,94,96,98,100,102,-1,-1,104,-1,-1,-1,-1,-1,-1,-1,-1,-1,-1,-1,-1,-1,-1,-1,-1,-1,-1,-1,-1,-1,-1,-1,-1,-1,-1,-1,-1,-1,-1,-1,-1,-1,-1,-1,-1,-1,-1,-1,-1,-1,-1,-1,-1,-1,-1,-1],"split_conditions":[2.1375E1,1.125E1,4.5875E1,6E0,8E0,3.8E1,6E1,3.6E1,9E0,2.022E3,3.6E1,2.9E1,1.5E1,2E0,2E0,2E0,-4.1054804E-2,7E0,9E0,7E0,1.2E1,3E0,4.5697097E-2,8E0,3.6904762E0,1.8424242E1,1.5666667E1,1.4E1,2.6333334E1,1.3E1,1.9E1,-3.7731055E-2,-1.3222727E-1,3.2E1,2E0,9.666667E0,-1.25E-1,1.2125E1,1.7E1,-5.6666665E0,6E0,3.6E1,8E0,2.1E1,1.375E1,5E0,1E0,4.8666668E1,4.08E1,3E0,1.7E1,2.021E3,2.1E1,-1.9166666E0,3.8333332E1,-6.002533E-2,8.825995E-2,7E0,1.0261836E-2,-8.760421E-2,-2.8959868E-2,-7.2236257E-3,-4.4468544E-2,-8.899869E-2,-1.3425337E-1,9.655833E-2,-7.722114E-2,6.0896408E-2,-3.5076316E-2,-9.741199E-3,3.288151E-2,6.608579E-2,-2.2606747E-2,4.92615E-2,-6.3546814E-2,-1.2080457E-1,2.6626093E-3,5.20411E-3,-6.742971E-2,-1.11325435E-1,7.042184E-3,3.995452E-2,-4.8274748E-2,-3.459187E-2,2.5777027E-2,-2.0508647E-2,-1.320876E-1,1.9345976E-2,8.782565E-2,2.1633128E-2,-9.112101E-2,-3.2924365E-2,8.738514E-2,8.495783E-2,-8.06183E-3,2.5045902E-2,1.18015826E-1,-1.4355397E-1,-3.3216055E-2,3.0517075E-2,-6.760607E-2,9.3726784E-2,-5.0568253E-2,8.211013E-2,1.21862315E-1],"split_indices":[7,7,7,2,2,5,6,1,2,4,1,0,16,15,16,2,0,2,15,2,0,15,0,16,14,14,14,0,5,1,15,0,0,1,16,6,14,7,7,14,16,0,16,5,14,15,3,5,6,1,1,4,0,14,14,0,0,2,0,0,0,0,0,0,0,0,0,0,0,0,0,0,0,0,0,0,0,0,0,0,0,0,0,0,0,0,0,0,0,0,0,0,0,0,0,0,0,0,0,0,0,0,0,0,0],"split_type":[0,0,0,0,0,0,0,0,0,0,0,0,0,0,0,0,0,0,0,0,0,0,0,0,0,0,0,0,0,0,0,0,0,0,0,0,0,0,0,0,0,0,0,0,0,0,0,0,0,0,0,0,0,0,0,0,0,0,0,0,0,0,0,0,0,0,0,0,0,0,0,0,0,0,0,0,0,0,0,0,0,0,0,0,0,0,0,0,0,0,0,0,0,0,0,0,0,0,0,0,0,0,0,0,0],"sum_hessian":[1.7141285E3,9.037064E2,8.1042206E2,5.557658E2,3.4794064E2,4.5686423E2,3.5355783E2,3.951107E1,5.162547E2,2.9490015E2,5.3040504E1,3.2028784E2,1.365764E2,1.5822568E2,1.9533215E2,3.8198883E1,1.312185E0,3.4645557E2,1.6979915E2,1.8667955E2,1.0822059E2,5.090499E1,2.135515E0,2.5248442E2,6.780342E1,4.4185974E1,9.239043E1,9.944087E0,1.482816E2,4.826758E0,1.905054E2,1.1460296E0,3.7052856E1,2.1473318E2,1.3172238E2,1.6531778E2,4.4813814E0,7.108836E1,1.1559118E2,4.2772743E1,6.5447845E1,1.950111E1,3.1403881E1,4.22298E1,2.1025462E2,5.446364E1,1.3339783E1,3.6123135E1,8.0628395E0,6.8315094E1,2.4075333E1,4.0768247E0,5.8672624E0,6.0557837E0,1.4222581E2,1.9123656E0,2.9143922E0,1.8911018E2,1.3952144E0,1.8187146E2,3.2861732E1,5.2258198E1,7.946418E1,1.5046799E2,1.4849791E1,2.1997137E0,2.281668E0,7.3263173E0,6.3762047E1,6.6187004E1,4.9404175E1,6.97176E0,3.5800983E1,2.4415088E0,6.300634E1,1.7137838E1,2.363272E0,1.128459E1,2.0119291E1,6.216752E0,3.6013046E1,2.0380202E2,6.4525957E0,2.4673351E1,2.9790287E1,6.9108114E0,6.4289713E0,2.4564785E1,1.1558349E1,3.926499E0,4.1363406E0,2.8468347E0,6.5468254E1,1.072451E1,1.33508215E1,1.4739866E0,2.6028383E0,1.720684E0,4.1465783E0,4.3362756E0,1.7195086E0,1.4073936E2,1.4864509E0,1.0736563E1,1.7837363E2],"tree_param":{"num_deleted":"0","num_feature":"17","num_nodes":"105","size_leaf_vector":"1"}},{"base_weights":[-3.578631E-4,-4.1277164E-1,7.1205896E-1,-6.6953015E-1,-1.4411008E-1,4.4771975E-1,1.0265607E0,-1.2335403E0,-6.246814E-1,-7.4220546E-2,-7.468458E-1,5.097799E-1,8.8398874E-2,3.7427413E-1,1.0421771E0,-1.2675032E-1,-4.2332575E-2,-5.2816707E-1,-8.1487596E-1,-1.8657821E-1,1.9197345E-1,6.487372E-2,-8.063918E-1,2.0561126E-1,6.0236454E-1,-3.8189313E-1,2.9161566E-1,-4.910912E-2,5.88267E-1,4.5267284E-1,1.0614661E0,-7.41079E-1,-1.8180315E-1,-8.745464E-1,-4.8727605E-1,1.3024591E-1,-2.334493E-1,-3.835875E-1,2.6635554E-1,-6.72495E-2,8.779347E-2,-6.5210277E-1,-1.1044602E0,-6.951364E-2,4.7713584E-1,-6.1433855E-2,6.344373E-1,-3.438827E-2,-1.3309957E-1,-1.7289756E-1,5.699286E-1,7.4049346E-2,-1.0741475E-2,7.49131E-1,-1.608174E-1,4.6137184E-1,1.0740108E0,-8.346417E-2,-4.586664E-2,1.4414427E-2,-3.8705282E-2,-6.7907274E-2,-9.441944E-2,-6.512434E-2,2.2678666E-2,-1.0252605E-2,6.335674E-2,-1.4443943E-2,-4.163709E-2,-1.0050265E-1,2.5984546E-2,4.1805994E-2,8.347356E-4,-9.0012155E-2,-2.0870913E-2,-1.2812315E-1,1.0351654E-3,-4.876153E-2,3.0020222E-2,1.8814078E-2,8.998699E-2,7.040676E-2,-2.5339944E-2,5.913065E-2,1.11292295E-1,6.350342E-2,-4.460813E-2,-6.008324E-2,3.971454E-2,8.155806E-3,7.651549E-2,1.03274345E-1,3.8969814E-4,-1.00896E-1,6.3119546E-2,-5.3796074E-3,8.736896E-2,7.8253664E-2,1.0964972E-1],"categories":[],"categories_nodes":[],"categories_segments":[],"categories_sizes":[],"default_left":[0,0,0,0,0,0,0,0,0,0,0,0,0,0,0,0,0,0,0,0,0,0,0,0,0,0,0,0,0,0,0,0,0,0,0,0,0,0,0,0,0,0,0,0,0,0,0,0,0,0,0,0,0,0,0,0,0,0,0,0,0,0,0,0,0,0,0,0,0,0,0,0,0,0,0,0,0,0,0,0,0,0,0,0,0,0,0,0,0,0,0,0,0,0,0,0,0,0,0],"id":7,"left_children":[1,3,5,7,9,11,13,15,17,19,21,23,25,27,29,-1,-1,31,33,35,37,39,41,43,45,47,49,-1,51,53,55,57,59,61,63,65,67,69,71,-1,-1,73,75,77,79,81,83,85,-1,87,89,-1,-1,91,93,95,97,-1,-1,-1,-1,-1,-1,-1,-1,-1,-1,-1,-1,-1,-1,-1,-1,-1,-1,-1,-1,-1,-1,-1,-1,-1,-1,-1,-1,-1,-1,-1,-1,-1,-1,-1,-1,-1,-1,-1,-1,-1,-1],"loss_changes":[4.9662674E2,7.375168E1,5.106247E1,1.3069199E1,2.203598E1,7.5032425E0,2.4849854E0,5.442009E-1,8.9104E0,1.4124295E1,2.6807728E0,7.998825E0,4.991505E0,1.7998914E0,2.647461E0,0E0,0E0,2.49682E1,2.8863144E0,4.9567356E0,6.108771E0,3.3734856E0,1.6131668E0,5.1746774E0,4.7356873E0,5.1785736E0,4.7814183E0,0E0,8.205104E-1,2.0227523E0,1.5041199E0,5.1789703E0,8.813972E0,1.2932205E0,3.4690375E0,5.1490784E0,4.650959E0,6.845443E0,4.8827467E0,0E0,0E0,3.7572184E0,3.1395588E0,5.5657816E0,4.078083E0,1.8065491E0,3.6866913E0,3.7616642E0,0E0,3.7364268E0,2.11942E0,0E0,0E0,1.5237603E0,3.4789E0,1.5747128E0,8.4228516E-1,0E0,0E0,0E0,0E0,0E0,0E0,0E0,0E0,0E0,0E0,0E0,0E0,0E0,0E0,0E0,0E0,0E0,0E0,0E0,0E0,0E0,0E0,0E0,0E0,0E0,0E0,0E0,0E0,0E0,0E0,0E0,0E0,0E0,0E0,0E0,0E0,0E0,0E0,0E0,0E0,0E0,0E0],"parents":[2147483647,0,0,1,1,2,2,3,3,4,4,5,5,6,6,7,7,8,8,9,9,10,10,11,11,12,12,13,13,14,14,17,17,18,18,19,19,20,20,21,21,22,22,23,23,24,24,25,25,26,26,28,28,29,29,30,30,31,31,32,32,33,33,34,34,35,35,36,36,37,37,38,38,41,41,42,42,43,43,44,44,45,45,46,46,47,47,49,49,50,50,53,53,54,54,55,55,56,56],"right_children":[2,4,6,8,10,12,14,16,18,20,22,24,26,28,30,-1,-1,32,34,36,38,40,42,44,46,48,50,-1,52,54,56,58,60,62,64,66,68,70,72,-1,-1,74,76,78,80,82,84,86,-1,88,90,-1,-1,92,94,96,98,-1,-1,-1,-1,-1,-1,-1,-1,-1,-1,-1,-1,-1,-1,-1,-1,-1,-1,-1,-1,-1,-1,-1,-1,-1,-1,-1,-1,-1,-1,-1,-1,-1,-1,-1,-1,-1,-1,-1,-1,-1,-1],"split_conditions":[2.9E1,1.15E1,4.8833332E1,6E0,8E0,3.9045532E1,4.7790465E0,8.2E0,8E0,2.3666666E1,1.2E1,3.2625E1,2.7E1,6E0,3.84E1,-1.2675032E-1,-4.2332575E-2,7E0,1.2E1,7E0,1.275E1,3.3333334E-1,1.6875E1,3E1,3E0,2.3333334E1,1.5E1,-4.910912E-2,2.2E1,2.3E1,6.875E-1,8.25E0,7.0710677E-1,2.02E3,2.6E1,3E1,2.022E3,1.8380405E1,2.119594E1,-6.72495E-2,8.779347E-2,1.3341664E1,7E0,2.4E1,2.1E1,3.4333332E1,6.2666668E1,1.2E1,-1.3309957E-1,5.294118E-1,4.292513E1,7.4049346E-2,-1.0741475E-2,2.022E3,3.092849E1,3.75E-1,7E0,-8.346417E-2,-4.586664E-2,1.4414427E-2,-3.8705282E-2,-6.7907274E-2,-9.441944E-2,-6.512434E-2,2.2678666E-2,-1.0252605E-2,6.335674E-2,-1.4443943E-2,-4.163709E-2,-1.0050265E-1,2.5984546E-2,4.1805994E-2,8.347356E-4,-9.0012155E-2,-2.0870913E-2,-1.2812315E-1,1.0351654E-3,-4.876153E-2,3.0020222E-2,1.8814078E-2,8.998699E-2,7.040676E-2,-2.5339944E-2,5.913065E-2,1.11292295E-1,6.350342E-2,-4.460813E-2,-6.008324E-2,3.971454E-2,8.155806E-3,7.651549E-2,1.03274345E-1,3.8969814E-4,-1.00896E-1,6.3119546E-2,-5.3796074E-3,8.736896E-2,7.8253664E-2,1.0964972E-1],"split_indices":[7,7,11,2,2,13,13,11,2,5,7,7,5,0,7,0,0,2,16,0,11,8,7,11,16,5,16,0,0,0,12,7,13,4,0,16,4,13,13,0,0,13,15,16,0,5,5,0,0,12,13,0,0,4,13,9,2,0,0,0,0,0,0,0,0,0,0,0,0,0,0,0,0,0,0,0,0,0,0,0,0,0,0,0,0,0,0,0,0,0,0,0,0,0,0,0,0,0,0],"split_type":[0,0,0,0,0,0,0,0,0,0,0,0,0,0,0,0,0,0,0,0,0,0,0,0,0,0,0,0,0,0,0,0,0,0,0,0,0,0,0,0,0,0,0,0,0,0,0,0,0,0,0,0,0,0,0,0,0,0,0,0,0,0,0,0,0,0,0,0,0,0,0,0,0,0,0,0,0,0,0,0,0,0,0,0,0,0,0,0,0,0,0,0,0,0,0,0,0,0,0],"sum_hessian":[1.6882955E3,1.0695564E3,6.1873914E2,5.461303E2,5.2342615E2,3.3749643E2,2.812427E2,3.827581E1,5.078545E2,4.700457E2,5.3380474E1,2.8743356E2,5.0062843E1,7.159531E0,2.7408316E2,3.61942E1,2.0816095E0,3.3940173E2,1.6845276E2,3.3074203E2,1.3930363E2,3.642134E0,4.973834E1,6.782587E1,2.1960771E2,1.48400955E1,3.5222748E1,1.1627192E0,5.996812E0,9.459313E0,2.6462387E2,2.0948837E2,1.2991336E2,1.4108533E2,2.7367437E1,4.2395004E1,2.8834705E2,1.5466727E1,1.23836914E2,2.0006344E0,1.6414995E0,3.4874187E1,1.4864152E1,3.4059124E1,3.3766747E1,1.007955E1,2.0952815E2,1.16213E1,3.2187958E0,1.3338736E1,2.1884012E1,4.867344E0,1.1294677E0,6.2284365E0,3.2308772E0,6.1921806E0,2.5843167E2,1.5588771E2,5.360066E1,5.0312355E1,7.9601E1,3.988749E1,1.0119784E2,2.2328262E1,5.0391755E0,2.9533089E1,1.28619175E1,1.9516779E2,9.317925E1,7.58196E0,7.884767E0,7.759315E1,4.6243767E1,2.1703785E1,1.31704035E1,1.2700935E1,2.1632168E0,1.5833994E1,1.8225128E1,2.0914173E1,1.28525715E1,1.48603E0,8.59352E0,1.9425385E2,1.5274308E1,4.218853E0,7.4024467E0,7.588208E0,5.750528E0,6.6546803E0,1.5229333E1,4.2320538E0,1.9963828E0,1.4278823E0,1.8029948E0,3.1393127E0,3.052868E0,2.1073328E1,2.3735835E2],"tree_param":{"num_deleted":"0","num_feature":"17","num_nodes":"99","size_leaf_vector":"1"}},{"base_weights":[-8.857813E-3,-3.6912972E-1,6.795209E-1,-5.678741E-1,-9.310968E-2,3.2839882E-1,8.955829E-1,-7.020916E-1,-3.5210362E-1,-5.9454236E-2,-6.7640394E-1,2.7484837E-1,8.754639E-1,6.26305E-1,9.9509585E-1,-4.2663345E-1,-7.984396E-1,-4.8054665E-1,-1.3976996E-1,-1.787657E-1,1.2112717E-1,-8.3045113E-1,8.7589644E-2,-4.517582E-2,4.4871444E-1,1.0434617E0,1.8545704E-1,2.1167425E-2,7.2859967E-1,2.807303E-1,1.00772E0,-2.7267757E-1,-6.3963884E-1,-8.988691E-1,-7.0220286E-1,-5.162954E-1,4.6273875E-1,-3.335395E-1,3.1204394E-1,-8.944678E-2,-4.8311982E-1,3.709503E-1,5.068992E-2,-2.5849408E-1,-1.2167841E0,-3.8260534E-1,1.8692191E-1,2.2705567E-1,6.7365676E-1,1.1974295E0,1.6399498E-1,-6.446545E-2,7.570899E-2,2.8100732E-1,-8.1413025E-1,2.473093E-1,8.434833E-1,-6.9692515E-2,9.149188E-2,6.352764E-1,1.0318978E0,-2.981128E-3,-5.137953E-2,-1.252333E-2,-8.0600135E-2,-9.152723E-2,3.6674615E-2,-6.33236E-2,-1.0629528E-1,-4.8084233E-2,-1.1149847E-1,7.8584574E-2,-4.657934E-2,-2.046292E-2,-9.931372E-2,-6.805409E-2,4.306597E-2,-3.6682017E-2,2.4542655E-3,-3.518867E-2,-1.235647E-1,5.5667736E-2,-1.6134514E-2,-6.291126E-2,1.0704118E-2,-7.048269E-2,2.9467633E-2,-4.57216E-2,-1.3441528E-1,-5.0669825E-3,-1.4149216E-1,-3.7741363E-2,3.810988E-2,4.088537E-2,-3.9376523E-2,8.22975E-2,2.2872211E-2,3.923688E-2,1.3279633E-1,-6.549974E-2,8.3649956E-2,-1.1035739E-2,6.504106E-2,4.812034E-3,-1.21524535E-1,4.213778E-2,-1.0277163E-1,3.5661366E-2,9.8447636E-2,8.629149E-2,2.6766295E-3,1.040107E-1,1.6653912E-2],"categories":[],"categories_nodes":[],"categories_segments":[],"categories_sizes":[],"default_left":[0,0,0,0,0,0,0,0,0,0,0,0,0,0,0,0,0,0,0,0,0,0,0,0,0,0,0,0,0,0,0,0,0,0,0,0,0,0,0,0,0,0,0,0,0,0,0,0,0,0,0,0,0,0,0,0,0,0,0,0,0,0,0,0,0,0,0,0,0,0,0,0,0,0,0,0,0,0,0,0,0,0,0,0,0,0,0,0,0,0,0,0,0,0,0,0,0,0,0,0,0,0,0,0,0,0,0,0,0,0,0,0,0],"id":8,"left_children":[1,3,5,7,9,11,13,15,17,19,21,23,25,27,29,31,33,35,37,39,41,43,-1,45,47,49,51,53,55,57,59,61,63,65,67,69,71,73,75,77,79,81,83,85,87,89,91,93,95,97,99,-1,-1,101,103,105,107,-1,-1,109,111,-1,-1,-1,-1,-1,-1,-1,-1,-1,-1,-1,-1,-1,-1,-1,-1,-1,-1,-1,-1,-1,-1,-1,-1,-1,-1,-1,-1,-1,-1,-1,-1,-1,-1,-1,-1,-1,-1,-1,-1,-1,-1,-1,-1,-1,-1,-1,-1,-1,-1,-1,-1],"loss_changes":[4.109415E2,5.9616013E1,4.2893738E1,1.8060806E1,8.921923E0,6.158678E0,8.804932E0,9.976395E0,6.599436E0,9.344819E0,6.659646E0,1.1171955E1,2.0110693E0,6.0285454E0,2.01857E0,3.1994724E0,2.1412811E0,5.3611107E0,8.293583E0,7.0511E0,3.0211046E0,4.785716E0,0E0,5.668291E0,6.3267727E0,1.8453789E0,2.8321538E0,3.516612E0,4.407707E0,4.2447305E0,1.5991364E0,3.5838757E0,3.5293312E0,3.175644E0,3.0851288E0,2.580265E0,2.188276E0,5.4044266E0,3.6595502E0,6.426923E0,5.390132E0,3.8304024E0,5.273988E0,2.8186572E0,6.921272E-1,1.0020221E1,4.857121E0,7.7189126E0,4.0632286E0,8.107414E-1,2.4233844E0,0E0,0E0,1.8496429E0,1.3903141E0,4.317767E0,4.2471733E0,0E0,0E0,2.451569E0,1.4857178E0,0E0,0E0,0E0,0E0,0E0,0E0,0E0,0E0,0E0,0E0,0E0,0E0,0E0,0E0,0E0,0E0,0E0,0E0,0E0,0E0,0E0,0E0,0E0,0E0,0E0,0E0,0E0,0E0,0E0,0E0,0E0,0E0,0E0,0E0,0E0,0E0,0E0,0E0,0E0,0E0,0E0,0E0,0E0,0E0,0E0,0E0,0E0,0E0,0E0,0E0,0E0,0E0],"parents":[2147483647,0,0,1,1,2,2,3,3,4,4,5,5,6,6,7,7,8,8,9,9,10,10,11,11,12,12,13,13,14,14,15,15,16,16,17,17,18,18,19,19,20,20,21,21,23,23,24,24,25,25,26,26,27,27,28,28,29,29,30,30,31,31,32,32,33,33,34,34,35,35,36,36,37,37,38,38,39,39,40,40,41,41,42,42,43,43,44,44,45,45,46,46,47,47,48,48,49,49,50,50,53,53,54,54,55,55,56,56,59,59,60,60],"right_children":[2,4,6,8,10,12,14,16,18,20,22,24,26,28,30,32,34,36,38,40,42,44,-1,46,48,50,52,54,56,58,60,62,64,66,68,70,72,74,76,78,80,82,84,86,88,90,92,94,96,98,100,-1,-1,102,104,106,108,-1,-1,110,112,-1,-1,-1,-1,-1,-1,-1,-1,-1,-1,-1,-1,-1,-1,-1,-1,-1,-1,-1,-1,-1,-1,-1,-1,-1,-1,-1,-1,-1,-1,-1,-1,-1,-1,-1,-1,-1,-1,-1,-1,-1,-1,-1,-1,-1,-1,-1,-1,-1,-1,-1,-1],"split_conditions":[2.9333334E1,3.75E-1,4E1,6.5E0,8.692307E0,6E1,4.86E1,1E0,7E0,2E1,5.4E1,5E0,8.5666664E1,6E0,6.4285713E-1,2.02E3,4E0,4.9E1,1.2333333E1,3E1,2.02E3,3E0,8.7589644E-2,1.6E1,2.021E3,7.84E1,8E1,4.7E1,7.8571427E-1,1.2E1,3E0,2E1,1.1E1,1.8181819E-1,2.023E3,3.4E1,1.375E1,4.2E1,-1E1,1.2E1,2.023E3,3E1,4E0,2.02E1,6E0,4.0666668E1,3.36E1,1.3E1,1.5E1,6E0,6.5333336E1,-6.446545E-2,7.570899E-2,1E0,8E-1,3.2E1,-1.4047619E1,-6.9692515E-2,9.149188E-2,2.6E1,1.9E1,-2.981128E-3,-5.137953E-2,-1.252333E-2,-8.0600135E-2,-9.152723E-2,3.6674615E-2,-6.33236E-2,-1.0629528E-1,-4.8084233E-2,-1.1149847E-1,7.8584574E-2,-4.657934E-2,-2.046292E-2,-9.931372E-2,-6.805409E-2,4.306597E-2,-3.6682017E-2,2.4542655E-3,-3.518867E-2,-1.235647E-1,5.5667736E-2,-1.6134514E-2,-6.291126E-2,1.0704118E-2,-7.048269E-2,2.9467633E-2,-4.57216E-2,-1.3441528E-1,-5.0669825E-3,-1.4149216E-1,-3.7741363E-2,3.810988E-2,4.088537E-2,-3.9376523E-2,8.22975E-2,2.2872211E-2,3.923688E-2,1.3279633E-1,-6.549974E-2,8.3649956E-2,-1.1035739E-2,6.504106E-2,4.812034E-3,-1.21524535E-1,4.213778E-2,-1.0277163E-1,3.5661366E-2,9.8447636E-2,8.629149E-2,2.6766295E-3,1.040107E-1,1.6653912E-2],"split_indices":[5,10,11,11,14,6,6,16,15,5,16,15,5,16,12,4,6,16,11,0,4,15,0,16,4,6,6,6,12,1,15,0,1,12,4,16,11,16,14,16,4,1,16,6,1,5,6,15,14,0,5,0,0,3,10,1,14,0,0,0,15,0,0,0,0,0,0,0,0,0,0,0,0,0,0,0,0,0,0,0,0,0,0,0,0,0,0,0,0,0,0,0,0,0,0,0,0,0,0,0,0,0,0,0,0,0,0,0,0,0,0,0,0],"split_type":[0,0,0,0,0,0,0,0,0,0,0,0,0,0,0,0,0,0,0,0,0,0,0,0,0,0,0,0,0,0,0,0,0,0,0,0,0,0,0,0,0,0,0,0,0,0,0,0,0,0,0,0,0,0,0,0,0,0,0,0,0,0,0,0,0,0,0,0,0,0,0,0,0,0,0,0,0,0,0,0,0,0,0,0,0,0,0,0,0,0,0,0,0,0,0,0,0,0,0,0,0,0,0,0,0,0,0,0,0,0,0,0,0],"sum_hessian":[1.6549874E3,1.0867084E3,5.6827905E2,6.3117914E2,4.5552917E2,2.1743904E2,3.5084003E2,3.8773764E2,2.4344153E2,4.3172125E2,2.3807922E1,1.9942078E2,1.8018257E1,9.663725E1,2.5420276E2,1.01883026E2,2.858546E2,1.5089827E2,9.254324E1,2.5996832E2,1.7175293E2,2.2081608E1,1.7263157E0,7.0463425E1,1.2895735E2,1.4078323E1,3.9399338E0,1.4148266E1,8.248899E1,4.8177366E0,2.4938503E2,6.046229E1,4.142074E1,1.3579906E2,1.5005554E2,1.4582446E2,5.0738063E0,6.494993E1,2.7593317E1,2.0198547E2,5.798286E1,3.683656E1,1.3491637E2,9.575055E0,1.2506552E1,2.8451479E1,4.2011944E1,6.596483E1,6.299253E1,1.1673165E1,2.4051576E0,1.5546159E0,2.3853178E0,1.1297488E1,2.8507774E0,1.6503284E1,6.59857E1,1.8566415E0,2.9610949E0,1.6865004E1,2.3252002E2,3.0681713E1,2.9780579E1,1.055051E1,3.0870226E1,1.3433481E2,1.4642491E0,1.282857E2,2.1769846E1,1.3937419E2,6.450276E0,3.8780174E0,1.1957887E0,5.5427532E1,9.522399E0,2.4397728E0,2.5153543E1,5.818483E1,1.4380064E2,5.062243E1,7.3604307E0,2.7274286E1,9.562273E0,9.5495615E0,1.25366806E2,5.1475377E0,4.4275174E0,2.4551117E0,1.005144E1,2.2322794E1,6.128686E0,1.0513358E1,3.1498585E1,5.128749E1,1.4677339E1,4.6528202E1,1.6464327E1,2.1875336E0,9.485632E0,1.0962051E0,1.3089525E0,5.8261847E0,5.4713035E0,1.1845222E0,1.6662554E0,1.5109963E1,1.3933213E0,1.561031E1,5.0375397E1,1.1969307E1,4.8956966E0,2.3013489E2,2.3851297E0],"tree_param":{"num_deleted":"0","num_feature":"17","num_nodes":"113","size_leaf_vector":"1"}},{"base_weights":[4.7764173E-3,-4.47034E-1,5.107645E-1,-6.1791146E-1,-1.7716742E-1,2.2603859E-1,8.679254E-1,-7.6337916E-1,-5.050059E-1,-9.720473E-2,-6.004833E-1,6.393427E-2,3.6919823E-1,5.8728814E-1,9.694539E-1,-9.2317694E-1,-5.058158E-1,-1.765454E-1,-7.8006124E-1,-3.201381E-1,-2.8781643E-2,-8.8312083E-1,-2.8147572E-1,-6.344122E-2,2.806466E-1,3.1076756E-1,8.7771225E-1,-2.7481407E-2,6.6882867E-1,5.001141E-2,9.823436E-1,-6.29573E-1,-1.0209701E0,-8.3020544E-1,-3.4742665E-1,2.7099815E-1,-3.297673E-1,-7.9956305E-1,-3.8761517E-3,-9.151631E-2,-5.405952E-1,-1.1547032E-2,-1.2583752E-1,-9.6291625E-1,4.7757667E-2,-1.4185674E-1,-9.567861E-2,7.597555E-1,-1.2087547E-1,3.82521E-1,-4.7472095E-1,1.9398731E-1,6.4242196E-1,1.17522E0,2.6957896E-1,-2.2502829E-1,9.338344E-2,6.949068E-1,-6.59358E-2,-7.578132E-2,6.553948E-2,3.7381852E-1,9.9975777E-1,-1.18655704E-1,-3.8522925E-2,-1.0446306E-1,2.6955163E-2,-1.0342866E-1,-1.8437738E-2,5.5182975E-2,-4.1422356E-2,-4.1649666E-2,4.1779254E-2,-8.84027E-2,-2.6373455E-2,-8.650251E-2,-6.1029818E-2,1.4181042E-1,-8.206454E-2,-6.541098E-2,2.1864986E-2,-4.5067524E-3,-9.389974E-2,1.9667625E-2,-9.822992E-3,2.4375357E-2,-1.0542257E-1,1.8632581E-2,-4.1847967E-2,-3.7989985E-2,1.0597582E-1,7.737528E-3,-4.685083E-2,1.0896861E-1,2.8495375E-2,3.706818E-2,-1.1536925E-1,2.205966E-2,-1.04496874E-1,1.0382413E-1,3.9016396E-2,1.2194623E-1,3.2350965E-2,5.890701E-2,-8.762739E-2,-2.3292666E-3,-9.9818796E-2,7.324868E-2,-3.535846E-2,-6.1369885E-2,6.673484E-2,4.946003E-3,1.0083121E-1],"categories":[],"categories_nodes":[],"categories_segments":[],"categories_sizes":[],"default_left":[0,0,0,0,0,0,0,0,0,0,0,0,0,0,0,0,0,0,0,0,0,0,0,0,0,0,0,0,0,0,0,0,0,0,0,0,0,0,0,0,0,0,0,0,0,0,0,0,0,0,0,0,0,0,0,0,0,0,0,0,0,0,0,0,0,0,0,0,0,0,0,0,0,0,0,0,0,0,0,0,0,0,0,0,0,0,0,0,0,0,0,0,0,0,0,0,0,0,0,0,0,0,0,0,0,0,0,0,0,0,0,0,0],"id":9,"left_children":[1,3,5,7,9,11,13,15,17,19,21,23,25,27,29,31,33,35,37,39,41,43,45,47,49,51,53,55,57,59,61,63,65,67,69,71,73,75,77,79,81,83,-1,85,-1,87,-1,89,91,93,95,97,99,101,103,105,-1,107,-1,-1,-1,109,111,-1,-1,-1,-1,-1,-1,-1,-1,-1,-1,-1,-1,-1,-1,-1,-1,-1,-1,-1,-1,-1,-1,-1,-1,-1,-1,-1,-1,-1,-1,-1,-1,-1,-1,-1,-1,-1,-1,-1,-1,-1,-1,-1,-1,-1,-1,-1,-1,-1,-1],"loss_changes":[3.6918115E2,3.9231567E1,7.727023E1,8.187286E0,1.118507E1,9.844337E0,9.04834E0,8.840378E0,2.6679108E1,4.270669E0,4.492367E0,5.55579E0,6.4302673E0,4.6408577E0,2.8703308E0,3.329361E0,4.2737923E0,9.454657E0,2.4378052E0,3.2665854E0,4.5582952E0,3.4362183E0,2.331679E0,6.104482E0,5.9108596E0,7.7722454E0,3.7905502E0,2.443221E0,3.279457E0,2.6774724E0,2.2000427E0,4.602149E0,3.4012299E0,3.554016E0,3.9156737E0,3.7446845E0,3.5070038E0,1.4209366E0,6.9211054E0,5.98908E0,6.5299425E0,3.8784912E0,0E0,3.1464844E0,0E0,2.1532607E0,0E0,3.285274E0,8.288586E0,4.2541256E0,5.7624893E0,5.249108E0,4.853382E0,1.687088E-1,3.7214582E0,1.6238743E0,0E0,3.425827E0,0E0,0E0,0E0,2.8311772E0,1.8647308E0,0E0,0E0,0E0,0E0,0E0,0E0,0E0,0E0,0E0,0E0,0E0,0E0,0E0,0E0,0E0,0E0,0E0,0E0,0E0,0E0,0E0,0E0,0E0,0E0,0E0,0E0,0E0,0E0,0E0,0E0,0E0,0E0,0E0,0E0,0E0,0E0,0E0,0E0,0E0,0E0,0E0,0E0,0E0,0E0,0E0,0E0,0E0,0E0,0E0,0E0],"parents":[2147483647,0,0,1,1,2,2,3,3,4,4,5,5,6,6,7,7,8,8,9,9,10,10,11,11,12,12,13,13,14,14,15,15,16,16,17,17,18,18,19,19,20,20,21,21,22,22,23,23,24,24,25,25,26,26,27,27,28,28,29,29,30,30,31,31,32,32,33,33,34,34,35,35,36,36,37,37,38,38,39,39,40,40,41,41,43,43,45,45,47,47,48,48,49,49,50,50,51,51,52,52,53,53,54,54,55,55,57,57,61,61,62,62],"right_children":[2,4,6,8,10,12,14,16,18,20,22,24,26,28,30,32,34,36,38,40,42,44,46,48,50,52,54,56,58,60,62,64,66,68,70,72,74,76,78,80,82,84,-1,86,-1,88,-1,90,92,94,96,98,100,102,104,106,-1,108,-1,-1,-1,110,112,-1,-1,-1,-1,-1,-1,-1,-1,-1,-1,-1,-1,-1,-1,-1,-1,-1,-1,-1,-1,-1,-1,-1,-1,-1,-1,-1,-1,-1,-1,-1,-1,-1,-1,-1,-1,-1,-1,-1,-1,-1,-1,-1,-1,-1,-1,-1,-1,-1,-1],"split_conditions":[2.1125E1,1E1,4.15E1,7E0,9E0,2.8666666E1,4.875E1,6E0,8E0,1.15E1,1.25E-1,7.1428573E-1,5.4E1,6E0,7.1428573E-1,7.0710677E-1,2.2E0,1E0,2.2513489E1,1.0138329E1,3.7E1,2.9E1,1.975E1,6.6666665E0,6.666667E-1,6.666667E-1,7.1666665E0,3.3E1,3.7E1,5.66E1,7.0710677E-1,6E0,4E-1,1.48E1,4E0,8E0,2.875E0,2.8E1,1.525E1,1.1E1,-4.6666665E0,9E0,-1.2583752E-1,6.4E0,4.7757667E-2,2E-1,-9.567861E-2,1.2E1,2.5983511E1,1.4333333E1,-2E0,8E0,1.6E1,3.4E1,4.4125E1,8.3333336E-2,9.338344E-2,4.7388214E1,-6.59358E-2,-7.578132E-2,6.553948E-2,9E0,3.65E1,-1.18655704E-1,-3.8522925E-2,-1.0446306E-1,2.6955163E-2,-1.0342866E-1,-1.8437738E-2,5.5182975E-2,-4.1422356E-2,-4.1649666E-2,4.1779254E-2,-8.84027E-2,-2.6373455E-2,-8.650251E-2,-6.1029818E-2,1.4181042E-1,-8.206454E-2,-6.541098E-2,2.1864986E-2,-4.5067524E-3,-9.389974E-2,1.9667625E-2,-9.822992E-3,2.4375357E-2,-1.0542257E-1,1.8632581E-2,-4.1847967E-2,-3.7989985E-2,1.0597582E-1,7.737528E-3,-4.685083E-2,1.0896861E-1,2.8495375E-2,3.706818E-2,-1.1536925E-1,2.205966E-2,-1.04496874E-1,1.0382413E-1,3.9016396E-2,1.2194623E-1,3.2350965E-2,5.890701E-2,-8.762739E-2,-2.3292666E-3,-9.9818796E-2,7.324868E-2,-3.535846E-2,-6.1369885E-2,6.673484E-2,4.946003E-3,1.0083121E-1],"split_indices":[7,11,11,2,2,5,7,7,2,6,9,10,16,16,10,13,11,16,13,13,1,16,11,5,8,8,14,1,1,6,13,2,9,6,1,1,7,1,7,16,14,16,0,6,0,9,0,1,13,5,14,2,1,1,7,14,0,13,0,0,0,1,6,0,0,0,0,0,0,0,0,0,0,0,0,0,0,0,0,0,0,0,0,0,0,0,0,0,0,0,0,0,0,0,0,0,0,0,0,0,0,0,0,0,0,0,0,0,0,0,0,0,0],"split_type":[0,0,0,0,0,0,0,0,0,0,0,0,0,0,0,0,0,0,0,0,0,0,0,0,0,0,0,0,0,0,0,0,0,0,0,0,0,0,0,0,0,0,0,0,0,0,0,0,0,0,0,0,0,0,0,0,0,0,0,0,0,0,0,0,0,0,0,0,0,0,0,0,0,0,0,0,0,0,0,0,0,0,0,0,0,0,0,0,0,0,0,0,0,0,0,0,0,0,0,0,0,0,0,0,0,0,0,0,0,0,0,0,0],"sum_hessian":[1.6128915E3,8.521237E2,7.6076776E2,5.209638E2,3.3115994E2,4.2421768E2,3.365501E2,2.2513635E2,2.9582742E2,2.7957834E2,5.1581608E1,1.9962376E2,2.245939E2,9.121231E1,2.453378E2,1.373421E2,8.779424E1,1.355731E2,1.6025433E2,6.479313E1,2.1478519E2,2.6412266E1,2.5169342E1,1.2617187E2,7.3451904E1,2.0289178E2,2.1702105E1,1.07589445E1,8.045337E1,3.4593277E0,2.4187846E2,3.6174202E1,1.0116791E2,2.7411812E1,6.0382435E1,3.438112E1,1.0119198E2,1.5629723E2,3.9571178E0,3.2502254E1,3.2290874E1,2.128117E2,1.9734865E0,2.5225313E1,1.186952E0,2.1859913E1,3.3094285E0,7.431338E0,1.1874053E2,6.515784E1,8.294068E0,1.5122737E2,5.1664417E1,1.394668E1,7.755424E0,9.560262E0,1.1986825E0,7.937176E1,1.0816128E0,1.3740295E0,2.085298E0,7.3543015E0,2.3452417E2,9.854551E0,2.6319649E1,9.953358E1,1.6343273E0,2.0372599E1,7.0392127E0,3.6730134E0,5.670942E1,5.7261353E0,2.8654985E1,9.453584E0,9.1738396E1,1.1347768E2,4.2819546E1,1.1750833E0,2.7820346E0,1.1156744E1,2.134551E1,1.4887328E1,1.740355E1,6.217957E1,1.5063214E2,1.6570879E0,2.3568226E1,1.0147477E1,1.1712436E1,1.4930797E0,5.938258E0,7.611214E1,4.2628395E1,6.6670017E0,5.8490833E1,3.8965008E0,4.397567E0,1.488524E2,2.3749804E0,1.8897095E1,3.2767323E1,1.2847532E1,1.0991479E0,6.4444647E0,1.3109595E0,8.398913E0,1.1613485E0,7.691631E1,2.4554381E0,1.4351835E0,5.919118E0,2.1528068E0,2.3237137E2],"tree_param":{"num_deleted":"0","num_feature":"17","num_nodes":"113","size_leaf_vector":"1"}},{"base_weights":[1.724255E-3,-2.890608E-1,6.397254E-1,-4.775883E-1,-3.4369957E-2,4.6383885E-1,9.893833E-1,-1.075204E0,-4.432268E-1,-2.050774E-1,1.57476E-1,3.445218E-1,7.0869994E-1,3.482876E-1,1.0214181E0,-1.0726701E-2,-1.120913E-1,-3.4109905E-1,-6.795459E-1,-1.12559065E-1,-4.7716036E-1,7.347113E-2,5.89212E-1,3.8011786E-1,-9.245835E-1,7.657554E-1,8.412308E-2,5.9776187E-1,-4.916391E-2,3.153027E-1,1.0325941E0,-5.598213E-1,-5.662268E-2,-6.95752E-1,1.7720975E-1,7.6520705E-1,-1.550229E-1,-3.6440274E-1,-1.1450577E0,1.1249641E-1,-1.0801244E0,9.6084535E-2,9.228907E-1,2.9355645E-1,6.4300126E-1,1.2929673E-2,-1.2537757E0,-5.7600666E-2,7.885288E-1,-3.7967816E-1,8.1117064E-1,8.196025E-1,-5.1660594E-3,-4.5661442E-2,8.745929E-2,9.256368E-1,1.1293776E-1,-7.284792E-2,-2.839523E-2,1.9693343E-2,-2.3014208E-2,-7.3683865E-2,-4.2039156E-2,9.8671116E-2,-6.398571E-2,-5.284531E-2,1.2673149E-1,-2.9020732E-2,9.3388595E-3,-7.327725E-2,-1.3417992E-2,-2.672338E-2,-1.42549E-1,2.1904252E-2,-2.1724248E-2,2.5521037E-3,-1.3399255E-1,4.004423E-2,-6.923108E-2,1.3099185E-1,5.637545E-2,5.3000923E-2,1.2016952E-2,-4.6812322E-2,7.051211E-2,-2.6052212E-2,-1.5018438E-1,7.681479E-2,-7.242856E-2,1.5745347E-2,8.230508E-2,7.884597E-2,-8.0610685E-2,2.2828987E-2,9.262517E-2,3.1534784E-2,1.01266086E-1,6.41583E-2,9.932174E-2],"categories":[],"categories_nodes":[],"categories_segments":[],"categories_sizes":[],"default_left":[0,0,0,0,0,0,0,0,0,0,0,0,0,0,0,0,0,0,0,0,0,0,0,0,0,0,0,0,0,0,0,0,0,0,0,0,0,0,0,0,0,0,0,0,0,0,0,0,0,0,0,0,0,0,0,0,0,0,0,0,0,0,0,0,0,0,0,0,0,0,0,0,0,0,0,0,0,0,0,0,0,0,0,0,0,0,0,0,0,0,0,0,0,0,0,0,0,0,0],"id":10,"left_children":[1,3,5,7,9,11,13,15,17,19,21,23,25,27,29,-1,-1,31,33,35,37,39,41,43,45,47,49,51,-1,53,55,57,59,61,63,65,67,69,71,73,75,77,79,81,83,-1,85,87,89,91,93,95,-1,-1,-1,97,-1,-1,-1,-1,-1,-1,-1,-1,-1,-1,-1,-1,-1,-1,-1,-1,-1,-1,-1,-1,-1,-1,-1,-1,-1,-1,-1,-1,-1,-1,-1,-1,-1,-1,-1,-1,-1,-1,-1,-1,-1,-1,-1],"loss_changes":[2.9391794E2,5.223861E1,3.0045609E1,1.2363754E1,1.5227682E1,9.452339E0,3.0353699E0,1.3529129E0,1.4079956E1,6.1376247E0,7.900593E0,1.0520237E1,3.7768059E0,2.2584329E0,9.113617E-1,0E0,0E0,2.58563E1,2.593811E0,7.008666E0,4.2597294E0,8.427554E0,5.7583265E0,4.809824E0,2.3937817E0,1.8950882E0,3.7292886E0,1.1487591E0,0E0,2.0752091E0,5.473175E-1,1.0731888E1,8.051004E0,1.6681976E0,3.343296E0,6.3198295E0,5.976157E0,4.5320992E0,1.7123241E0,6.3492002E0,1.795475E0,3.9861805E0,2.191166E0,6.7866716E0,4.0278625E0,0E0,8.3949375E-1,2.5310287E0,1.96315E0,4.0605206E0,7.499981E-2,2.4370384E-1,0E0,0E0,0E0,8.7223816E-1,0E0,0E0,0E0,0E0,0E0,0E0,0E0,0E0,0E0,0E0,0E0,0E0,0E0,0E0,0E0,0E0,0E0,0E0,0E0,0E0,0E0,0E0,0E0,0E0,0E0,0E0,0E0,0E0,0E0,0E0,0E0,0E0,0E0,0E0,0E0,0E0,0E0,0E0,0E0,0E0,0E0,0E0,0E0],"parents":[2147483647,0,0,1,1,2,2,3,3,4,4,5,5,6,6,7,7,8,8,9,9,10,10,11,11,12,12,13,13,14,14,17,17,18,18,19,19,20,20,21,21,22,22,23,23,24,24,25,25,26,26,27,27,29,29,30,30,31,31,32,32,33,33,34,34,35,35,36,36,37,37,38,38,39,39,40,40,41,41,42,42,43,43,44,44,46,46,47,47,48,48,49,49,50,50,51,51,55,55],"right_children":[2,4,6,8,10,12,14,16,18,20,22,24,26,28,30,-1,-1,32,34,36,38,40,42,44,46,48,50,52,-1,54,56,58,60,62,64,66,68,70,72,74,76,78,80,82,84,-1,86,88,90,92,94,96,-1,-1,-1,98,-1,-1,-1,-1,-1,-1,-1,-1,-1,-1,-1,-1,-1,-1,-1,-1,-1,-1,-1,-1,-1,-1,-1,-1,-1,-1,-1,-1,-1,-1,-1,-1,-1,-1,-1,-1,-1,-1,-1,-1,-1,-1,-1],"split_conditions":[3.2625E1,1.4375E1,6E1,6E0,2.0625E1,4.8142857E1,1.4589624E1,-2.5E0,8E0,3E1,3.8E1,4.9222347E1,3.2E1,2.9E1,3.7333332E1,-1.0726701E-2,-1.120913E-1,7E0,1.2E1,9.6E0,2.5644548E1,1E1,1.6666667E-1,5E-1,4.15E1,3.26E1,3.4572647E1,8.2E1,-4.916391E-2,6.26E1,6E-1,7.1666665E0,3E0,1.125E1,-4.6666665E0,6.5E0,1.4666667E0,1.6E1,7.5E-1,2.2814468E1,2.15E1,1.1E1,8E0,2.5E-1,2.78E1,1.2929673E-2,2.5E-1,3E1,7.1428573E-1,2.2683773E1,4.58E1,6.2666668E1,-5.1660594E-3,-4.5661442E-2,8.745929E-2,8E0,1.1293776E-1,-7.284792E-2,-2.839523E-2,1.9693343E-2,-2.3014208E-2,-7.3683865E-2,-4.2039156E-2,9.8671116E-2,-6.398571E-2,-5.284531E-2,1.2673149E-1,-2.9020732E-2,9.3388595E-3,-7.327725E-2,-1.3417992E-2,-2.672338E-2,-1.42549E-1,2.1904252E-2,-2.1724248E-2,2.5521037E-3,-1.3399255E-1,4.004423E-2,-6.923108E-2,1.3099185E-1,5.637545E-2,5.3000923E-2,1.2016952E-2,-4.6812322E-2,7.051211E-2,-2.6052212E-2,-1.5018438E-1,7.681479E-2,-7.242856E-2,1.5745347E-2,8.230508E-2,7.884597E-2,-8.0610685E-2,2.2828987E-2,9.262517E-2,3.1534784E-2,1.01266086E-1,6.41583E-2,9.932174E-2],"split_indices":[7,7,6,2,11,11,13,14,2,0,5,13,0,0,5,0,0,2,15,6,13,2,9,8,7,6,13,5,0,6,9,11,15,7,14,11,14,6,11,13,11,15,15,9,6,0,11,6,10,13,6,11,0,0,0,0,0,0,0,0,0,0,0,0,0,0,0,0,0,0,0,0,0,0,0,0,0,0,0,0,0,0,0,0,0,0,0,0,0,0,0,0,0,0,0,0,0,0,0],"split_type":[0,0,0,0,0,0,0,0,0,0,0,0,0,0,0,0,0,0,0,0,0,0,0,0,0,0,0,0,0,0,0,0,0,0,0,0,0,0,0,0,0,0,0,0,0,0,0,0,0,0,0,0,0,0,0,0,0,0,0,0,0,0,0,0,0,0,0,0,0,0,0,0,0,0,0,0,0,0,0,0,0,0,0,0,0,0,0,0,0,0,0,0,0,0,0,0,0,0,0],"sum_hessian":[1.5822856E3,1.0872782E3,4.9500742E2,6.242902E2,4.6298795E2,3.308888E2,1.6411864E2,3.2296577E1,5.9199365E2,2.4495462E2,2.1803333E2,2.2409683E2,1.0679195E2,8.375531E0,1.557431E2,1.6072893E0,3.068929E1,4.1506314E2,1.7693051E2,1.8385185E2,6.110277E1,1.8349922E2,3.4534107E1,2.186642E2,5.432646E0,9.76459E1,9.14605E0,6.679816E0,1.6957158E0,2.8817647E0,1.5286134E2,2.3410301E2,1.8096013E2,1.738303E2,3.1002014E0,7.6984143E0,1.7615344E2,5.3599453E1,7.5033197E0,1.7836765E2,5.131564E0,1.4456906E1,2.00772E1,1.6609096E2,5.2573242E1,1.4375821E0,3.9950638E0,2.5869567E0,9.5058945E1,5.8756266E0,3.2704237E0,4.783678E0,1.8961376E0,1.2878675E0,1.5938972E0,7.763238E1,7.5228966E1,1.4426385E2,8.983916E1,7.34687E1,1.0749143E2,1.4980235E2,2.4027958E1,1.4530146E0,1.6471866E0,2.137853E0,5.560561E0,1.1396561E2,6.218783E1,1.9775166E1,3.3824287E1,2.2895098E0,5.21381E0,1.3506183E2,4.330583E1,1.1479514E0,3.983613E0,1.07853365E1,3.6715696E0,8.3891325E0,1.1688067E1,6.939635E1,9.66946E1,2.437547E0,5.0135696E1,1.208098E0,2.7869658E0,1.0876344E0,1.4993222E0,5.2187786E0,8.9840164E1,1.3442553E0,4.531371E0,1.031195E0,2.2392285E0,2.053504E0,2.730174E0,1.6936901E1,6.069548E1],"tree_param":{"num_deleted":"0","num_feature":"17","num_nodes":"99","size_leaf_vector":"1"}},{"base_weights":[-1.7862326E-2,-2.7607235E-1,5.389953E-1,-5.221068E-1,-6.651598E-2,2.9743114E-1,8.041652E-1,-5.612555E-1,-3.0349615E-1,-1.7905982E-1,1.0018596E-1,6.084432E-1,1.9775328E-1,6.12858E-1,9.3446445E-1,-7.843467E-1,-4.993111E-1,9.681235E-2,-5.323127E-1,-1.0828965E-2,-2.8184506E-1,1.9504553E-1,-1.719765E-1,-8.5229225E-2,6.6173285E-1,1.4208515E-1,7.0820016E-1,2.2463632E-1,6.813062E-1,1.0867408E-2,9.498458E-1,-9.090409E-1,-1.5677178E-1,-3.379524E-1,-5.8754694E-1,-2.1656536E-1,7.5750107E-1,-2.1983197E-1,-9.477249E-1,6.291192E-2,-6.555777E-1,-4.3065044E-1,-1.0015205E-1,6.116656E-2,5.681313E-1,-2.7883872E-1,7.27967E-1,7.4386615E-1,-3.207728E-1,-1.4297543E-2,3.302952E-1,-4.0853646E-2,8.562076E-1,5.0113714E-1,-8.5700047E-1,5.021409E-1,9.1100305E-1,-2.4297457E-2,2.5618622E-2,3.928746E-1,9.7391707E-1,-5.5920925E-2,-9.642216E-2,-3.678755E-2,7.23099E-2,-3.541809E-2,7.632585E-2,-6.751355E-2,-3.987873E-2,-4.0376253E-2,8.965327E-2,-2.3043437E-2,1.3220224E-1,-7.332277E-2,9.672329E-3,-1.0964061E-1,2.723301E-2,-9.153843E-3,3.5588562E-2,-1.1484333E-1,1.1714287E-2,5.7062622E-2,-4.829421E-2,8.310686E-3,-4.7611706E-2,9.230922E-2,8.244387E-5,2.5804257E-2,9.087925E-2,5.4758288E-2,-3.648744E-2,1.3026676E-1,2.4167313E-3,-6.786232E-2,7.922701E-2,-7.501154E-2,7.399614E-2,2.0684682E-2,-2.0897262E-2,1.29148755E-2,6.0732313E-2,-1.6101314E-2,9.338863E-2,8.969267E-2,-1.5072953E-3,-1.3775137E-1,-1.5793818E-3,7.491708E-2,2.5385423E-2,1.0006904E-1,-4.182725E-3,-5.376109E-2,6.6709414E-2,6.367504E-2,1.0076251E-1],"categories":[],"categories_nodes":[],"categories_segments":[],"categories_sizes":[],"default_left":[0,0,0,0,0,0,0,0,0,0,0,0,0,0,0,0,0,0,0,0,0,0,0,0,0,0,0,0,0,0,0,0,0,0,0,0,0,0,0,0,0,0,0,0,0,0,0,0,0,0,0,0,0,0,0,0,0,0,0,0,0,0,0,0,0,0,0,0,0,0,0,0,0,0,0,0,0,0,0,0,0,0,0,0,0,0,0,0,0,0,0,0,0,0,0,0,0,0,0,0,0,0,0,0,0,0,0,0,0,0,0,0,0,0,0],"id":11,"left_children":[1,3,5,7,9,11,13,15,17,19,21,23,25,27,29,31,33,35,37,39,41,43,45,-1,47,49,51,53,55,57,59,61,63,65,67,69,71,73,75,77,79,81,83,85,87,89,91,93,95,97,99,-1,101,103,105,107,109,-1,-1,111,113,-1,-1,-1,-1,-1,-1,-1,-1,-1,-1,-1,-1,-1,-1,-1,-1,-1,-1,-1,-1,-1,-1,-1,-1,-1,-1,-1,-1,-1,-1,-1,-1,-1,-1,-1,-1,-1,-1,-1,-1,-1,-1,-1,-1,-1,-1,-1,-1,-1,-1,-1,-1,-1,-1],"loss_changes":[2.2318855E2,5.4639572E1,3.126007E1,4.0028687E0,1.0783533E1,7.9063168E0,5.256119E0,5.307205E0,7.03469E0,5.926484E0,6.020727E0,5.418173E0,5.5130496E0,2.4416466E0,1.9386292E0,6.7336006E0,4.4359894E0,6.080197E0,6.1085787E0,6.273967E0,5.7108746E0,8.578202E0,6.018327E0,0E0,5.139099E0,5.2843933E0,3.519206E0,5.2527146E0,2.9384003E0,2.651845E-1,1.4263916E0,8.7181854E-1,3.1957853E0,2.3689098E0,3.1876297E0,4.5624824E0,5.555626E0,4.796051E0,4.0334034E0,5.396988E0,5.2918754E0,6.3855915E0,6.731341E0,6.6576524E0,4.5630703E0,4.094344E0,2.6765404E0,4.4171543E0,3.0068552E0,4.3024096E0,4.4600925E0,0E0,1.5137491E0,2.766596E0,1.5774422E0,2.789772E0,3.0269356E0,0E0,0E0,2.2126231E0,8.207092E-1,0E0,0E0,0E0,0E0,0E0,0E0,0E0,0E0,0E0,0E0,0E0,0E0,0E0,0E0,0E0,0E0,0E0,0E0,0E0,0E0,0E0,0E0,0E0,0E0,0E0,0E0,0E0,0E0,0E0,0E0,0E0,0E0,0E0,0E0,0E0,0E0,0E0,0E0,0E0,0E0,0E0,0E0,0E0,0E0,0E0,0E0,0E0,0E0,0E0,0E0,0E0,0E0,0E0,0E0],"parents":[2147483647,0,0,1,1,2,2,3,3,4,4,5,5,6,6,7,7,8,8,9,9,10,10,11,11,12,12,13,13,14,14,15,15,16,16,17,17,18,18,19,19,20,20,21,21,22,22,24,24,25,25,26,26,27,27,28,28,29,29,30,30,31,31,32,32,33,33,34,34,35,35,36,36,37,37,38,38,39,39,40,40,41,41,42,42,43,43,44,44,45,45,46,46,47,47,48,48,49,49,50,50,52,52,53,53,54,54,55,55,56,56,59,59,60,60],"right_children":[2,4,6,8,10,12,14,16,18,20,22,24,26,28,30,32,34,36,38,40,42,44,46,-1,48,50,52,54,56,58,60,62,64,66,68,70,72,74,76,78,80,82,84,86,88,90,92,94,96,98,100,-1,102,104,106,108,110,-1,-1,112,114,-1,-1,-1,-1,-1,-1,-1,-1,-1,-1,-1,-1,-1,-1,-1,-1,-1,-1,-1,-1,-1,-1,-1,-1,-1,-1,-1,-1,-1,-1,-1,-1,-1,-1,-1,-1,-1,-1,-1,-1,-1,-1,-1,-1,-1,-1,-1,-1,-1,-1,-1,-1,-1,-1],"split_conditions":[3.16E1,1.1125E1,4.8833332E1,9.4E0,1.9333334E1,6E0,5.92E1,0E0,2.3529412E-1,2.021E3,2.857143E-1,1.154123E1,6.04E1,9E0,6.875E-1,7.6E0,2.02E3,1.9E1,-1.25E-1,9.066667E0,3E1,1.4285715E-1,7.1428573E-1,-8.5229225E-2,3.9557373E1,8E0,8E0,2.02E3,5.5125E1,7.3E1,1.25E-1,-3.952381E0,1.2E1,6.1666665E0,3E0,2.023E3,1E0,2.5E-1,1.2E1,1.4370108E1,1.8583147E1,7.2E0,2.8E1,2E1,-3.3333334E-1,-1.9E1,4E0,-2.0238094E1,5.4125E1,4.02E1,7.1666665E0,-4.0853646E-2,-2.125E0,5.38E1,2.1E1,3.2E1,1E0,-2.4297457E-2,2.5618622E-2,5E0,5.65E1,-5.5920925E-2,-9.642216E-2,-3.678755E-2,7.23099E-2,-3.541809E-2,7.632585E-2,-6.751355E-2,-3.987873E-2,-4.0376253E-2,8.965327E-2,-2.3043437E-2,1.3220224E-1,-7.332277E-2,9.672329E-3,-1.0964061E-1,2.723301E-2,-9.153843E-3,3.5588562E-2,-1.1484333E-1,1.1714287E-2,5.7062622E-2,-4.829421E-2,8.310686E-3,-4.7611706E-2,9.230922E-2,8.244387E-5,2.5804257E-2,9.087925E-2,5.4758288E-2,-3.648744E-2,1.3026676E-1,2.4167313E-3,-6.786232E-2,7.922701E-2,-7.501154E-2,7.399614E-2,2.0684682E-2,-2.0897262E-2,1.29148755E-2,6.0732313E-2,-1.6101314E-2,9.338863E-2,8.969267E-2,-1.5072953E-3,-1.3775137E-1,-1.5793818E-3,7.491708E-2,2.5385423E-2,1.0006904E-1,-4.182725E-3,-5.376109E-2,6.6709414E-2,6.367504E-2,1.0076251E-1],"split_indices":[6,7,11,11,11,0,6,14,12,4,9,13,6,16,12,6,4,16,14,14,16,9,9,0,13,15,0,4,7,6,9,14,15,14,11,4,3,10,15,13,13,6,0,11,14,14,15,14,7,6,14,0,14,6,0,16,9,0,0,0,11,0,0,0,0,0,0,0,0,0,0,0,0,0,0,0,0,0,0,0,0,0,0,0,0,0,0,0,0,0,0,0,0,0,0,0,0,0,0,0,0,0,0,0,0,0,0,0,0,0,0,0,0,0,0],"split_type":[0,0,0,0,0,0,0,0,0,0,0,0,0,0,0,0,0,0,0,0,0,0,0,0,0,0,0,0,0,0,0,0,0,0,0,0,0,0,0,0,0,0,0,0,0,0,0,0,0,0,0,0,0,0,0,0,0,0,0,0,0,0,0,0,0,0,0,0,0,0,0,0,0,0,0,0,0,0,0,0,0,0,0,0,0,0,0,0,0,0,0,0,0,0,0,0,0,0,0,0,0,0,0,0,0,0,0,0,0,0,0,0,0,0,0],"sum_hessian":[1.55019E3,1.0594408E3,4.9074918E2,4.8662085E2,5.7281995E2,2.5791534E2,2.3283383E2,4.113832E2,7.523765E1,3.4191327E2,2.3090666E2,6.1359394E1,1.9655594E2,9.664368E1,1.3619016E2,8.686807E1,3.2451514E2,2.7574203E1,4.766344E1,1.3009283E2,2.1182043E2,1.7143723E2,5.9469425E1,1.6319519E0,5.9727444E1,1.7838054E2,1.8175406E1,1.5127274E1,8.15164E1,2.2588813E0,1.3393127E2,7.209489E1,1.4773188E1,1.164291E2,2.0808604E2,1.9158949E1,8.415255E0,2.8074486E1,1.9588957E1,1.175508E2,1.2542037E1,1.1569597E2,9.6124466E1,1.2702076E2,4.4416473E1,5.3774254E1,5.6951694E0,5.5343826E1,4.383619E0,9.793277E1,8.044776E1,1.9209951E0,1.625441E1,1.2474962E1,2.6523118E0,4.758547E1,3.3930935E1,1.1148518E0,1.1440295E0,6.266051E0,1.2766522E2,1.1339483E1,6.07554E1,1.2383874E1,2.3893137E0,1.1540672E2,1.0223743E0,1.4037318E2,6.771286E1,1.6946247E1,2.2127016E0,3.2752461E0,5.140009E0,1.0205968E1,1.7868517E1,1.7551413E1,2.0375445E0,7.7422585E1,4.012821E1,7.3608985E0,5.1811385E0,5.2503433E0,1.10445625E2,6.514795E1,3.0976511E1,7.3752465E0,1.19645515E2,2.4171606E1,2.0244867E1,4.564551E0,4.9209705E1,2.6667116E0,3.028458E0,1.3927854E0,5.395104E1,3.3290055E0,1.0546136E0,4.582012E1,5.2112648E1,4.7456436E1,3.2991325E1,1.0770732E0,1.5177337E1,6.6436267E0,5.8313355E0,1.2446284E0,1.4076834E0,2.2841862E1,2.4743607E1,3.0965967E1,2.9649696E0,1.2076668E0,5.058384E0,1.3411002E1,1.1425422E2],"tree_param":{"num_deleted":"0","num_feature":"17","num_nodes":"115","size_leaf_vector":"1"}},{"base_weights":[1.6413623E-2,-1.668743E-1,7.0100874E-1,-3.5330844E-1,5.684424E-2,7.176114E-1,-1.2889634E-1,-1.0478089E0,-3.1816766E-1,-6.9438964E-2,1.8845665E-1,5.3182906E-1,8.9728034E-1,-1.139432E-1,-3.3671007E-1,-2.3188363E-1,-5.585161E-1,2.9543695E-1,-1.1703411E-1,1.6376312E-1,9.6885556E-1,2.8754488E-1,6.231003E-1,7.063116E-1,1.0090295E0,3.5271278E-1,-9.63509E-2,-4.2259774E-1,-1.4617552E-2,-5.772253E-1,7.21754E-2,6.99691E-1,-7.8443915E-2,-1.5237173E-1,6.346063E-1,1.927155E-1,-6.5317214E-1,1.2661318E-1,2.9514664E-1,-3.2584345E-1,4.593898E-1,-4.7507834E-2,6.4297E-1,-2.6741478E-1,7.460709E-1,1.117512E0,7.980632E-1,-1.7585272E-2,7.075913E-2,-4.6092354E-2,2.0207316E-2,-4.110852E-3,1.1366042E-1,-7.5054616E-2,-4.7834173E-2,-2.9942317E-2,1.08377255E-1,7.5190604E-2,-4.1799784E-2,-1.6739067E-2,8.5621126E-2,8.92329E-2,-8.980272E-3,2.1073338E-2,-6.80654E-2,4.9107783E-2,-9.1516964E-2,-5.7237297E-2,8.853127E-2,4.128467E-3,-1.6053754E-1,-2.686916E-4,6.042656E-2,2.8665487E-2,7.105054E-2,2.1441791E-2,-6.078419E-2,3.151974E-2,8.1598155E-2,1.1295642E-1,3.7881818E-2,2.0890154E-2,9.033231E-2],"categories":[],"categories_nodes":[],"categories_segments":[],"categories_sizes":[],"default_left":[0,0,0,0,0,0,0,0,0,0,0,0,0,0,0,0,0,0,0,0,0,0,0,0,0,0,0,0,0,0,0,0,0,0,0,0,0,0,0,0,0,0,0,0,0,0,0,0,0,0,0,0,0,0,0,0,0,0,0,0,0,0,0,0,0,0,0,0,0,0,0,0,0,0,0,0,0,0,0,0,0,0,0],"id":12,"left_children":[1,3,5,7,9,11,-1,13,15,17,19,21,23,-1,25,27,29,31,33,35,37,39,41,43,45,47,-1,49,51,53,-1,55,57,59,61,63,65,-1,67,69,71,-1,73,75,77,79,81,-1,-1,-1,-1,-1,-1,-1,-1,-1,-1,-1,-1,-1,-1,-1,-1,-1,-1,-1,-1,-1,-1,-1,-1,-1,-1,-1,-1,-1,-1,-1,-1,-1,-1,-1,-1],"loss_changes":[1.9224495E2,5.0429688E1,1.1614944E1,1.5758888E1,9.15819E0,1.0255051E1,0E0,1.6569786E0,1.2916E1,4.9237514E0,5.038683E0,3.3999863E0,2.7444153E0,0E0,2.498076E0,1.924456E1,4.379921E0,5.007806E0,6.730676E0,6.337696E0,1.2422962E0,4.947916E0,2.836811E0,2.6437492E0,1.3936005E0,7.078738E-1,0E0,6.0156364E0,6.701593E0,2.4454613E0,0E0,6.4053288E0,5.3678403E0,3.76901E0,2.210094E0,4.1469717E0,3.2125814E0,0E0,2.439093E0,5.020772E0,2.409832E0,0E0,2.5485306E0,6.573458E-1,1.5779266E0,1.3700104E-1,2.1313114E0,0E0,0E0,0E0,0E0,0E0,0E0,0E0,0E0,0E0,0E0,0E0,0E0,0E0,0E0,0E0,0E0,0E0,0E0,0E0,0E0,0E0,0E0,0E0,0E0,0E0,0E0,0E0,0E0,0E0,0E0,0E0,0E0,0E0,0E0,0E0,0E0],"parents":[2147483647,0,0,1,1,2,2,3,3,4,4,5,5,7,7,8,8,9,9,10,10,11,11,12,12,14,14,15,15,16,16,17,17,18,18,19,19,20,20,21,21,22,22,23,23,24,24,25,25,27,27,28,28,29,29,31,31,32,32,33,33,34,34,35,35,36,36,38,38,39,39,40,40,42,42,43,43,44,44,45,45,46,46],"right_children":[2,4,6,8,10,12,-1,14,16,18,20,22,24,-1,26,28,30,32,34,36,38,40,42,44,46,48,-1,50,52,54,-1,56,58,60,62,64,66,-1,68,70,72,-1,74,76,78,80,82,-1,-1,-1,-1,-1,-1,-1,-1,-1,-1,-1,-1,-1,-1,-1,-1,-1,-1,-1,-1,-1,-1,-1,-1,-1,-1,-1,-1,-1,-1,-1,-1,-1,-1,-1,-1],"split_conditions":[4E1,1.6E1,8E0,6E0,2.25E1,5.65E1,-1.2889634E-1,5.875E0,9E0,6E0,2.5766666E1,1.4E1,4E-1,-1.139432E-1,8.333333E0,7E0,2.2513489E1,1.15E1,5.8E1,5.3E1,6.1538464E-1,3.6E1,2.65E1,4E0,2.9166667E0,7.1666665E0,-9.63509E-2,1.6333334E1,1.9675945E1,2.828427E0,7.21754E-2,1.9197748E1,1.25E-1,1E0,4.6153846E-1,8E0,5E0,1.2661318E-1,2.6E1,3.4333332E1,1.8583147E1,-4.7507834E-2,7.8571427E-1,7.1333336E1,7E0,1.8E1,6E0,-1.7585272E-2,7.075913E-2,-4.6092354E-2,2.0207316E-2,-4.110852E-3,1.1366042E-1,-7.5054616E-2,-4.7834173E-2,-2.9942317E-2,1.08377255E-1,7.5190604E-2,-4.1799784E-2,-1.6739067E-2,8.5621126E-2,8.92329E-2,-8.980272E-3,2.1073338E-2,-6.80654E-2,4.9107783E-2,-9.1516964E-2,-5.7237297E-2,8.853127E-2,4.128467E-3,-1.6053754E-1,-2.686916E-4,6.042656E-2,2.8665487E-2,7.105054E-2,2.1441791E-2,-6.078419E-2,3.151974E-2,8.1598155E-2,1.1295642E-1,3.7881818E-2,2.0890154E-2,9.033231E-2],"split_indices":[11,7,2,2,11,11,0,7,2,0,14,16,9,0,5,2,13,11,16,5,12,5,7,0,14,11,0,11,13,13,0,13,9,9,12,2,0,0,16,5,13,0,12,11,16,15,15,0,0,0,0,0,0,0,0,0,0,0,0,0,0,0,0,0,0,0,0,0,0,0,0,0,0,0,0,0,0,0,0,0,0,0,0],"split_type":[0,0,0,0,0,0,0,0,0,0,0,0,0,0,0,0,0,0,0,0,0,0,0,0,0,0,0,0,0,0,0,0,0,0,0,0,0,0,0,0,0,0,0,0,0,0,0,0,0,0,0,0,0,0,0,0,0,0,0,0,0,0,0,0,0,0,0,0,0,0,0,0,0,0,0,0,0,0,0,0,0,0,0],"sum_hessian":[1.5301681E3,1.207609E3,3.2255914E2,6.583766E2,5.4923236E2,3.2052435E2,2.0347912E0,3.0320663E1,6.2805597E2,2.8053198E2,2.6870035E2,1.595282E2,1.6099615E2,2.6326248E1,3.9944153E0,4.6359296E2,1.64463E2,3.1769789E1,2.487622E2,2.616316E2,7.0687566E0,4.4520664E1,1.1500754E2,6.2134563E1,9.8861595E1,2.1104205E0,1.8839949E0,2.4637886E2,2.172141E2,1.6263547E2,1.8275304E0,1.48461485E1,1.6923641E1,2.3835353E2,1.0408672E1,2.5341463E2,8.216975E0,4.294465E0,2.7742918E0,9.547038E0,3.497363E1,1.6367478E0,1.1337079E2,2.212931E0,5.992163E1,6.2451077E1,3.641052E1,1.050399E0,1.0600214E0,2.3238344E2,1.3995415E1,2.1327077E2,3.9433193E0,5.668649E1,1.0594898E2,4.183638E0,1.066251E1,4.5594654E0,1.2364175E1,2.3567805E2,2.6754766E0,7.506342E0,2.9023309E0,2.4903566E2,4.378968E0,1.3679997E0,6.8489757E0,1.1354203E0,1.6388716E0,8.170471E0,1.3765676E0,8.582252E0,2.6391376E1,1.8899874E1,9.447092E1,1.069432E0,1.143499E0,9.134211E0,5.0787422E1,6.0927876E1,1.5232031E0,5.9714847E0,3.0439035E1],"tree_param":{"num_deleted":"0","num_feature":"17","num_nodes":"83","size_leaf_vector":"1"}},{"base_weights":[-7.3288125E-3,-2.2722225E-1,4.477562E-1,-3.8123208E-1,-1.7565638E-2,2.5001708E-1,7.473528E-1,-4.8705402E-1,-1.9683176E-1,-6.72191E-1,7.817078E-3,9.793505E-3,3.6856848E-1,6.497239E-1,1.003022E0,-1.0652419E0,-4.4648898E-1,-1.6947961E-1,-8.094995E-1,-1.117667E0,-6.917195E-2,-5.9103202E-2,2.4670283E-1,-4.9772978E-1,1.7512378E-1,3.1398478E-1,8.5218877E-1,7.015942E-1,1.959314E-1,1.913629E-2,1.0311015E0,-1.1003827E-1,-3.4336414E-2,-3.58827E-1,-6.099763E-1,-2.5779676E-1,1.1239804E-1,-1.0397834E0,2.486874E-2,-1.367801E-2,-1.2472702E0,5.042024E-1,-6.6940665E-1,3.4914338E-3,-2.9268053E-1,-5.616338E-1,2.990465E-1,8.9123175E-2,-1.0132143E0,2.1660644E-1,-1.0650692E-1,3.6310104E-1,-2.5606135E-1,1.0620135E0,3.8349372E-1,7.8721666E-1,2.6733643E-1,-5.5683523E-1,4.4736663E-1,1.0913967E0,6.2409604E-1,-5.6691118E-2,-3.6866546E-3,-6.854697E-2,-4.0302455E-2,-2.1689532E-2,-1.3359134E-1,-1.8870633E-2,3.7985902E-2,-1.1951416E-1,-3.675839E-2,-1.4096606E-1,-3.8314294E-2,1.0384239E-1,-3.7772804E-2,-1.00196116E-1,-1.0499E-2,-4.847671E-3,4.196609E-2,-1.9145645E-2,-1.0323655E-1,-1.1743032E-1,-2.927281E-3,9.746823E-2,2.195458E-2,6.0139734E-2,-6.476953E-2,2.0146972E-2,-1.1682852E-1,7.0304084E-3,5.038188E-2,-6.609745E-2,3.962303E-2,-8.252322E-2,1.5036552E-2,5.6542534E-2,1.1677077E-1,7.518917E-2,-5.2941825E-2,4.88816E-2,8.846661E-2,-4.632388E-2,4.5077432E-2,4.1550413E-2,-1.22587346E-1,6.2328268E-2,-6.1470073E-2,3.2322016E-2,1.1095269E-1,-1.6723426E-2,8.8252425E-2],"categories":[],"categories_nodes":[],"categories_segments":[],"categories_sizes":[],"default_left":[0,0,0,0,0,0,0,0,0,0,0,0,0,0,0,0,0,0,0,0,0,0,0,0,0,0,0,0,0,0,0,0,0,0,0,0,0,0,0,0,0,0,0,0,0,0,0,0,0,0,0,0,0,0,0,0,0,0,0,0,0,0,0,0,0,0,0,0,0,0,0,0,0,0,0,0,0,0,0,0,0,0,0,0,0,0,0,0,0,0,0,0,0,0,0,0,0,0,0,0,0,0,0,0,0,0,0,0,0,0,0],"id":13,"left_children":[1,3,5,7,9,11,13,15,17,19,21,23,25,27,29,31,33,35,37,39,41,43,45,47,49,51,53,55,57,-1,59,-1,-1,61,63,65,67,69,-1,-1,71,73,75,77,79,81,83,85,87,89,-1,91,93,95,97,99,101,103,105,107,109,-1,-1,-1,-1,-1,-1,-1,-1,-1,-1,-1,-1,-1,-1,-1,-1,-1,-1,-1,-1,-1,-1,-1,-1,-1,-1,-1,-1,-1,-1,-1,-1,-1,-1,-1,-1,-1,-1,-1,-1,-1,-1,-1,-1,-1,-1,-1,-1,-1,-1],"loss_changes":[1.5111269E2,3.286684E1,2.8957382E1,1.1356522E1,7.1868377E0,8.478998E0,4.218048E0,8.254501E0,3.4770155E0,4.259574E0,6.6818285E0,8.431842E0,4.996338E0,3.2526093E0,9.894829E-1,2.2288895E-1,4.7905884E0,5.200116E0,2.4401097E0,1.0013924E0,3.0650759E0,4.776146E0,4.0377264E0,7.561308E0,4.1279154E0,5.15419E0,1.5242128E0,4.580925E0,3.3079698E0,0E0,5.48439E-1,0E0,0E0,1.5385466E1,1.6075478E0,6.6981688E0,4.118682E0,3.486538E-1,0E0,0E0,5.853157E-1,2.5706887E0,7.022048E-1,5.612432E0,4.971445E0,1.8931445E0,4.434908E0,5.095573E0,2.727129E0,3.079592E0,0E0,5.922291E0,3.576897E0,2.2148132E-2,2.9670706E0,2.6826248E0,3.255967E0,3.4315352E0,2.7501795E0,2.3054886E-1,1.9472833E0,0E0,0E0,0E0,0E0,0E0,0E0,0E0,0E0,0E0,0E0,0E0,0E0,0E0,0E0,0E0,0E0,0E0,0E0,0E0,0E0,0E0,0E0,0E0,0E0,0E0,0E0,0E0,0E0,0E0,0E0,0E0,0E0,0E0,0E0,0E0,0E0,0E0,0E0,0E0,0E0,0E0,0E0,0E0,0E0,0E0,0E0,0E0,0E0,0E0,0E0],"parents":[2147483647,0,0,1,1,2,2,3,3,4,4,5,5,6,6,7,7,8,8,9,9,10,10,11,11,12,12,13,13,14,14,15,15,16,16,17,17,18,18,19,19,20,20,21,21,22,22,23,23,24,24,25,25,26,26,27,27,28,28,30,30,33,33,34,34,35,35,36,36,37,37,40,40,41,41,42,42,43,43,44,44,45,45,46,46,47,47,48,48,49,49,51,51,52,52,53,53,54,54,55,55,56,56,57,57,58,58,59,59,60,60],"right_children":[2,4,6,8,10,12,14,16,18,20,22,24,26,28,30,32,34,36,38,40,42,44,46,48,50,52,54,56,58,-1,60,-1,-1,62,64,66,68,70,-1,-1,72,74,76,78,80,82,84,86,88,90,-1,92,94,96,98,100,102,104,106,108,110,-1,-1,-1,-1,-1,-1,-1,-1,-1,-1,-1,-1,-1,-1,-1,-1,-1,-1,-1,-1,-1,-1,-1,-1,-1,-1,-1,-1,-1,-1,-1,-1,-1,-1,-1,-1,-1,-1,-1,-1,-1,-1,-1,-1,-1,-1,-1,-1,-1,-1],"split_conditions":[2.9333334E1,1.4375E1,5.1E1,7.8333335E0,2E0,1.5E1,7.475E1,6E0,2.2E1,2.2E1,7.1428573E-1,2.725E1,6.04E1,3.4E1,3E0,3.4E1,8E0,1.375E1,3.2E1,6E0,3.2E1,2.4E1,2.2E1,3.5666668E1,8E0,3.3E1,2.2E1,2.9E1,1.7E1,1.913629E-2,3.2E1,-1.1003827E-1,-3.4336414E-2,7E0,2.6E1,1.3666667E1,1.32E1,9E0,2.486874E-2,-1.367801E-2,3.2E1,2.0333334E1,2.0333334E1,2.5E1,4.7E1,1.3E1,6.3333335E0,2.48E1,7E0,2.7E1,-1.0650692E-1,3E0,3.05E1,8E0,7.475E1,8E0,9E0,5.7E1,9.0333336E1,3E0,6E0,-5.6691118E-2,-3.6866546E-3,-6.854697E-2,-4.0302455E-2,-2.1689532E-2,-1.3359134E-1,-1.8870633E-2,3.7985902E-2,-1.1951416E-1,-3.675839E-2,-1.4096606E-1,-3.8314294E-2,1.0384239E-1,-3.7772804E-2,-1.00196116E-1,-1.0499E-2,-4.847671E-3,4.196609E-2,-1.9145645E-2,-1.0323655E-1,-1.1743032E-1,-2.927281E-3,9.746823E-2,2.195458E-2,6.0139734E-2,-6.476953E-2,2.0146972E-2,-1.1682852E-1,7.0304084E-3,5.038188E-2,-6.609745E-2,3.962303E-2,-8.252322E-2,1.5036552E-2,5.6542534E-2,1.1677077E-1,7.518917E-2,-5.2941825E-2,4.88816E-2,8.846661E-2,-4.632388E-2,4.5077432E-2,4.1550413E-2,-1.22587346E-1,6.2328268E-2,-6.1470073E-2,3.2322016E-2,1.1095269E-1,-1.6723426E-2,8.8252425E-2],"split_indices":[5,7,11,11,16,16,7,2,5,1,10,11,6,1,0,1,2,11,1,1,1,6,7,5,2,0,1,0,16,0,1,0,0,2,0,7,6,15,0,0,0,5,5,11,16,1,11,7,1,0,0,1,7,0,7,0,16,7,5,1,15,0,0,0,0,0,0,0,0,0,0,0,0,0,0,0,0,0,0,0,0,0,0,0,0,0,0,0,0,0,0,0,0,0,0,0,0,0,0,0,0,0,0,0,0,0,0,0,0,0,0],"split_type":[0,0,0,0,0,0,0,0,0,0,0,0,0,0,0,0,0,0,0,0,0,0,0,0,0,0,0,0,0,0,0,0,0,0,0,0,0,0,0,0,0,0,0,0,0,0,0,0,0,0,0,0,0,0,0,0,0,0,0,0,0,0,0,0,0,0,0,0,0,0,0,0,0,0,0,0,0,0,0,0,0,0,0,0,0,0,0,0,0,0,0,0,0,0,0,0,0,0,0,0,0,0,0,0,0,0,0,0,0,0,0],"sum_hessian":[1.5080502E3,1.0170975E3,4.9095267E2,5.85893E2,4.3120447E2,2.9685654E2,1.9409612E2,3.7121964E2,2.1467337E2,1.5144426E1,4.1606006E2,9.844919E1,1.9840736E2,1.4302313E2,5.107299E1,2.268089E1,3.4853876E2,2.0672107E2,7.9523063E0,8.219143E0,6.9252834E0,3.2560052E2,9.045953E1,2.3696436E1,7.475275E1,1.7976721E2,1.864015E1,1.2786194E2,1.5161186E1,1.9691201E0,4.910387E1,2.112805E1,1.552839E0,2.289633E2,1.1957544E2,1.574688E2,4.9252274E1,6.5453014E0,1.4070048E0,1.1991208E0,7.0200224E0,3.6237175E0,3.3015661E0,2.5756314E2,6.803736E1,4.9097123E0,8.554982E1,1.1467911E1,1.2228526E1,7.3131935E1,1.6208128E0,1.6584106E2,1.3926148E1,1.2001459E1,6.63869E0,1.0612458E2,2.1737356E1,3.4919832E0,1.1669203E1,4.1303497E1,7.800373E0,1.3861507E2,9.0348236E1,8.592047E1,3.365497E1,1.528704E2,4.598395E0,2.3307465E1,2.594481E1,4.6846356E0,1.8606659E0,5.3780465E0,1.6419758E0,2.14622E0,1.4774976E0,1.5896993E0,1.7118669E0,2.297564E2,2.7806751E1,6.0954697E1,7.082666E0,1.7220479E0,3.1876645E0,7.8212194E0,7.772861E1,6.8731403E0,4.5947704E0,1.3505265E0,1.0877999E1,4.9276096E1,2.385584E1,4.6030283E0,1.6123804E2,5.372251E0,8.553898E0,3.2204235E0,8.781036E0,4.855624E0,1.7830658E0,2.7606518E1,7.851807E1,4.056456E0,1.76809E1,1.5778235E0,1.9141597E0,1.0365457E1,1.3037457E0,1.386471E0,3.9917027E1,2.007157E0,5.7932158E0],"tree_param":{"num_deleted":"0","num_feature":"17","num_nodes":"111","size_leaf_vector":"1"}},{"base_weights":[-2.540645E-3,-2.0711613E-1,4.7772142E-1,-3.578186E-1,-2.2486012E-2,2.8212246E-1,7.213038E-1,-9.784896E-1,-3.262929E-1,-1.6323037E-1,6.695176E-2,4.5794114E-1,1.5954895E-1,1.625475E-1,7.5780994E-1,-8.834811E-3,-1.0284374E0,-2.5045046E-1,-5.1135707E-1,-1.09919555E-1,-6.7178607E-1,3.9567003E-1,8.907068E-3,7.8959876E-1,3.629504E-1,4.2435065E-1,4.4380657E-2,4.2190558E-1,-4.7685078E-1,6.7764735E-1,1.0354025E0,-1.0563548E-1,-3.039788E-2,-4.2024434E-1,-4.4449504E-2,-6.1181235E-1,-3.6617056E-1,-3.8717765E-1,-8.948153E-3,-5.0910413E-2,-9.819663E-1,6.279453E-1,-7.383173E-1,-1.2427907E-1,2.2086106E-1,2.2611389E-1,1.0176419E0,5.1473373E-1,1.2196544E-1,-3.303702E-1,5.0651646E-1,-7.9321854E-2,4.202553E-1,6.0862345E-1,-5.922054E-2,-9.5163025E-2,1.4249789E-2,5.3557587E-1,8.5091895E-1,3.8775346E-1,1.0913519E-1,-5.215158E-2,-4.388376E-3,1.836084E-2,-1.4906499E-2,-5.2797515E-2,-9.3382955E-2,4.04659E-2,-4.5047835E-2,-4.9666256E-2,4.1168295E-2,1.4218874E-2,-3.1296488E-2,-8.162419E-2,3.2338005E-2,-2.0031342E-3,-1.1766769E-1,-6.5668E-2,7.3891744E-2,2.6536241E-2,-9.982489E-2,-9.09361E-3,-9.816667E-2,3.7573617E-2,-1.6054813E-2,7.469925E-2,-4.172449E-2,1.6491285E-2,1.1029667E-1,5.943389E-2,-7.0198933E-3,-8.321149E-2,3.848583E-2,-1.2929651E-1,3.175138E-2,9.128815E-2,3.253879E-2,3.634503E-3,-1.2300775E-1,-6.2017526E-2,5.9579868E-2,2.0191906E-2,1.0498398E-1,3.0820642E-2,-2.8526938E-2,6.3007854E-2,1.1798179E-2,9.087776E-2,-2.1309257E-2,-2.3043353E-2,8.3817974E-2],"categories":[],"categories_nodes":[],"categories_segments":[],"categories_sizes":[],"default_left":[0,0,0,0,0,0,0,0,0,0,0,0,0,0,0,0,0,0,0,0,0,0,0,0,0,0,0,0,0,0,0,0,0,0,0,0,0,0,0,0,0,0,0,0,0,0,0,0,0,0,0,0,0,0,0,0,0,0,0,0,0,0,0,0,0,0,0,0,0,0,0,0,0,0,0,0,0,0,0,0,0,0,0,0,0,0,0,0,0,0,0,0,0,0,0,0,0,0,0,0,0,0,0,0,0,0,0,0,0,0,0],"id":14,"left_children":[1,3,5,7,9,11,13,15,17,19,21,23,25,27,29,-1,31,33,35,37,39,41,43,45,47,49,51,53,55,57,59,-1,-1,61,63,65,67,69,71,73,75,77,79,81,83,85,87,89,91,93,95,97,99,101,-1,-1,103,105,107,109,-1,-1,-1,-1,-1,-1,-1,-1,-1,-1,-1,-1,-1,-1,-1,-1,-1,-1,-1,-1,-1,-1,-1,-1,-1,-1,-1,-1,-1,-1,-1,-1,-1,-1,-1,-1,-1,-1,-1,-1,-1,-1,-1,-1,-1,-1,-1,-1,-1,-1,-1],"loss_changes":[1.4692862E2,2.917191E1,2.1080566E1,1.0977753E1,5.9571414E0,5.301893E0,3.922104E0,1.1276913E0,7.6047745E0,4.9101725E0,5.5210543E0,2.9242764E0,4.5096903E0,2.4292228E0,3.4347E0,0E0,2.0184898E-1,1.37187805E1,2.0977554E0,4.688157E0,3.2714605E0,1.1903235E1,7.003249E0,2.5764017E0,2.9028196E0,2.9511204E0,4.896934E0,2.270784E0,1.0270219E0,3.1660385E0,1.0174255E0,0E0,0E0,8.178478E0,4.2878213E0,2.006878E0,4.5749073E0,4.1153884E0,5.7361875E0,2.2119853E0,2.1203241E0,5.7011013E0,2.311101E0,4.2673407E0,5.714464E0,2.8511834E0,9.285984E-1,2.3435822E0,8.507637E0,3.5366652E0,2.7117739E0,1.0632032E1,5.1290255E0,1.405407E0,0E0,0E0,3.6278266E-1,3.222435E0,4.1697006E0,1.5053291E0,0E0,0E0,0E0,0E0,0E0,0E0,0E0,0E0,0E0,0E0,0E0,0E0,0E0,0E0,0E0,0E0,0E0,0E0,0E0,0E0,0E0,0E0,0E0,0E0,0E0,0E0,0E0,0E0,0E0,0E0,0E0,0E0,0E0,0E0,0E0,0E0,0E0,0E0,0E0,0E0,0E0,0E0,0E0,0E0,0E0,0E0,0E0,0E0,0E0,0E0,0E0],"parents":[2147483647,0,0,1,1,2,2,3,3,4,4,5,5,6,6,7,7,8,8,9,9,10,10,11,11,12,12,13,13,14,14,16,16,17,17,18,18,19,19,20,20,21,21,22,22,23,23,24,24,25,25,26,26,27,27,28,28,29,29,30,30,33,33,34,34,35,35,36,36,37,37,38,38,39,39,40,40,41,41,42,42,43,43,44,44,45,45,46,46,47,47,48,48,49,49,50,50,51,51,52,52,53,53,56,56,57,57,58,58,59,59],"right_children":[2,4,6,8,10,12,14,16,18,20,22,24,26,28,30,-1,32,34,36,38,40,42,44,46,48,50,52,54,56,58,60,-1,-1,62,64,66,68,70,72,74,76,78,80,82,84,86,88,90,92,94,96,98,100,102,-1,-1,104,106,108,110,-1,-1,-1,-1,-1,-1,-1,-1,-1,-1,-1,-1,-1,-1,-1,-1,-1,-1,-1,-1,-1,-1,-1,-1,-1,-1,-1,-1,-1,-1,-1,-1,-1,-1,-1,-1,-1,-1,-1,-1,-1,-1,-1,-1,-1,-1,-1,-1,-1,-1,-1],"split_conditions":[3.2625E1,1.4375E1,5.1875E1,6E0,5E0,1.6E1,3.6E1,2E0,9E0,9E0,1.1666667E1,7E0,1.6666667E-1,6.666667E-1,5E1,-8.834811E-3,3.5E1,7E0,3E0,1.8375E1,1.6333334E1,3.1E1,2.7333334E1,1.4E1,4.325E1,7E0,5.1666668E1,1.5E1,8E-1,5.714286E-1,3E0,-1.0563548E-1,-3.039788E-2,3E1,2E0,3.1E1,3E0,2.25E1,2.022E3,2.5E-1,1E1,6E0,6E0,3.6E1,1.2E1,2.02E3,3E0,5.1666668E1,4.5125E1,4E0,3.44E1,4.8666668E1,9E0,4E-1,-5.922054E-2,-9.5163025E-2,8.333333E-1,3.1E1,2.023E3,6.4666664E1,1.0913519E-1,-5.215158E-2,-4.388376E-3,1.836084E-2,-1.4906499E-2,-5.2797515E-2,-9.3382955E-2,4.04659E-2,-4.5047835E-2,-4.9666256E-2,4.1168295E-2,1.4218874E-2,-3.1296488E-2,-8.162419E-2,3.2338005E-2,-2.0031342E-3,-1.1766769E-1,-6.5668E-2,7.3891744E-2,2.6536241E-2,-9.982489E-2,-9.09361E-3,-9.816667E-2,3.7573617E-2,-1.6054813E-2,7.469925E-2,-4.172449E-2,1.6491285E-2,1.1029667E-1,5.943389E-2,-7.0198933E-3,-8.321149E-2,3.848583E-2,-1.2929651E-1,3.175138E-2,9.128815E-2,3.253879E-2,3.634503E-3,-1.2300775E-1,-6.2017526E-2,5.9579868E-2,2.0191906E-2,1.0498398E-1,3.0820642E-2,-2.8526938E-2,6.3007854E-2,1.1798179E-2,9.087776E-2,-2.1309257E-2,-2.3043353E-2,8.3817974E-2],"split_indices":[7,7,7,2,15,1,5,2,2,2,5,0,9,9,16,0,1,2,15,7,5,0,5,16,7,2,5,15,9,9,15,0,0,1,16,1,16,11,4,11,1,16,15,1,15,4,15,5,7,15,6,5,16,9,0,0,12,1,4,5,0,0,0,0,0,0,0,0,0,0,0,0,0,0,0,0,0,0,0,0,0,0,0,0,0,0,0,0,0,0,0,0,0,0,0,0,0,0,0,0,0,0,0,0,0,0,0,0,0,0,0],"split_type":[0,0,0,0,0,0,0,0,0,0,0,0,0,0,0,0,0,0,0,0,0,0,0,0,0,0,0,0,0,0,0,0,0,0,0,0,0,0,0,0,0,0,0,0,0,0,0,0,0,0,0,0,0,0,0,0,0,0,0,0,0,0,0,0,0,0,0,0,0,0,0,0,0,0,0,0,0,0,0,0,0,0,0,0,0,0,0,0,0,0,0,0,0,0,0,0,0,0,0,0,0,0,0,0,0,0,0,0,0,0,0],"sum_hessian":[1.493452E3,1.0477251E3,4.457269E2,5.7634845E2,4.7137665E2,2.4840977E2,1.9731714E2,2.6407413E1,5.4994104E2,1.8283385E2,2.885428E2,1.0091784E2,1.4749194E2,1.2435418E1,1.8488171E2,1.5501602E0,2.4857254E1,3.9174902E2,1.5819203E2,1.6658702E2,1.6246826E1,4.2431034E1,2.4611177E2,2.0840702E1,8.007713E1,4.389087E1,1.03601074E2,9.088868E0,3.3465502E0,1.4612515E2,3.8756565E1,2.349378E1,1.3634738E0,2.1417653E2,1.7757248E2,9.1599724E1,6.65923E1,4.3715046E1,1.2287198E2,5.8004417E0,1.0446383E1,3.5587814E1,6.8432217E0,1.513937E2,9.471805E1,6.578081E0,1.426262E1,4.8434753E1,3.164238E1,4.0126386E0,3.987823E1,7.8541565E1,2.5059511E1,8.013306E0,1.0755626E0,1.2247515E0,2.1217988E0,8.2539276E1,6.3585876E1,3.7125003E0,3.5044067E1,1.6846115E2,4.5715374E1,5.5603603E1,1.2196888E2,7.477232E1,1.68274E1,6.1907015E0,6.04016E1,3.8778664E1,4.936382E0,8.242704E1,4.044494E1,1.5172563E0,4.2831855E0,1.9442111E0,8.502172E0,2.4387734E0,3.314904E1,1.4033892E0,5.439832E0,1.4679121E2,4.602506E0,6.7374725E1,2.7343327E1,3.54604E0,3.032041E0,1.564082E0,1.2698538E1,4.261859E1,5.8161645E0,6.367711E0,2.527467E1,1.2137032E0,2.7989354E0,1.1049198E1,2.8829031E1,7.224805E1,6.2935133E0,3.2520423E0,2.180747E1,4.928216E0,3.0850894E0,1.0562052E0,1.0655936E0,6.68925E1,1.5646772E1,6.044491E1,3.1409678E0,1.7707065E0,1.9417938E0],"tree_param":{"num_deleted":"0","num_feature":"17","num_nodes":"111","size_leaf_vector":"1"}},{"base_weights":[2.3375621E-2,-1.4333478E-1,5.1527196E-1,-3.0346286E-1,1.3531977E-2,3.65278E-1,7.4806607E-1,-3.437433E-1,-1.9846631E-2,-6.3991144E-2,1.07158214E-1,1.3707542E-1,5.100192E-1,4.2843008E-1,8.646455E-1,4.6460763E-2,-3.6278936E-1,4.5306332E-2,-9.685692E-2,-4.1573934E-2,-9.56621E-1,1.4599136E-1,-4.0741006E-1,-5.311917E-1,2.7649778E-1,-4.0263772E-1,5.4415864E-1,-7.547892E-1,5.592787E-1,8.9901686E-1,5.1848537E-1,-4.267477E-1,7.076436E-1,-2.8528348E-1,-4.7056553E-1,1.9192459E-1,-4.4950026E-1,5.223914E-2,-1.8941915E-1,-1.525165E-1,5.68806E-2,-8.8242345E-2,2.5202054E-1,-7.5941616E-1,1.8634774E-1,-1.0345068E0,-1.4785346E-1,1.6027209E-1,8.5851526E-1,-1.1199037E-1,4.0712193E-1,8.4962755E-1,4.6477157E-1,-1.4462416E-1,1.3377919E-2,6.630753E-1,-8.459649E-2,9.1481405E-1,8.003141E-3,6.305798E-1,-2.792404E-2,-8.559095E-2,1.6298288E-2,1.11504674E-1,-4.026928E-2,-8.042263E-2,-2.5536656E-2,-2.0116478E-2,-5.726142E-2,-6.270813E-2,3.248501E-2,3.0076379E-2,-6.586256E-2,1.9348428E-3,1.1618413E-1,-2.2518853E-2,8.256195E-2,1.3072625E-2,-3.1259637E-2,5.644964E-2,1.643975E-2,5.282401E-2,-1.2014713E-1,-5.7305902E-2,5.8307555E-2,8.1488015E-3,-1.2998754E-1,-1.18425906E-1,2.4346134E-2,3.2815564E-2,-9.91163E-3,2.8290166E-2,9.905451E-2,8.503005E-2,-2.6920725E-2,9.132813E-2,-2.499955E-2,3.7784684E-2,9.552883E-2,5.136891E-2,9.255702E-2,9.2244975E-2,1.7165013E-2,-6.1597545E-3,8.243902E-2],"categories":[],"categories_nodes":[],"categories_segments":[],"categories_sizes":[],"default_left":[0,0,0,0,0,0,0,0,0,0,0,0,0,0,0,0,0,0,0,0,0,0,0,0,0,0,0,0,0,0,0,0,0,0,0,0,0,0,0,0,0,0,0,0,0,0,0,0,0,0,0,0,0,0,0,0,0,0,0,0,0,0,0,0,0,0,0,0,0,0,0,0,0,0,0,0,0,0,0,0,0,0,0,0,0,0,0,0,0,0,0,0,0,0,0,0,0,0,0,0,0,0,0,0,0],"id":15,"left_children":[1,3,5,7,9,11,13,15,17,19,21,23,25,27,29,31,33,35,-1,37,39,41,43,45,47,49,51,53,55,57,59,61,63,65,67,69,71,73,75,-1,-1,77,79,81,83,85,87,89,91,-1,93,95,97,-1,-1,99,-1,101,-1,103,-1,-1,-1,-1,-1,-1,-1,-1,-1,-1,-1,-1,-1,-1,-1,-1,-1,-1,-1,-1,-1,-1,-1,-1,-1,-1,-1,-1,-1,-1,-1,-1,-1,-1,-1,-1,-1,-1,-1,-1,-1,-1,-1,-1,-1],"loss_changes":[1.1943195E2,2.732997E1,1.2598999E1,6.14373E0,4.0023975E0,7.399807E0,4.976715E0,3.5199661E0,4.2480483E0,5.99866E0,5.0494595E0,8.451832E0,4.5191956E0,6.6664824E0,7.732315E-1,7.4428706E0,3.620903E0,4.7728386E0,0E0,4.1073036E0,7.239693E0,5.8072705E0,3.8591318E0,2.881785E0,4.895724E0,3.6801E0,2.8415527E0,2.9224715E0,5.941778E0,